<?xml version="1.0"?>
<opencv_storage>
<opencv_ml_svm>
  <svmType>C_SVC</svmType>
  <kernel>
    <type>LINEAR</type></kernel>
  <C>1.</C>
  <term_criteria><iterations>100</iterations></term_criteria>
  <var_count>31250</var_count>
  <class_count>2</class_count>
  <class_labels type_id="opencv-matrix">
    <rows>2</rows>
    <cols>1</cols>
    <dt>i</dt>
    <data>
      -1 1</data></class_labels>
  <sv_total>1</sv_total>
  <support_vectors>
    <_>
      -1.79045586e-004 2.17837980e-004 4.50265943e-005 2.77917752e-005
      3.72538057e-006 -9.98094947e-006 3.15809916e-006 -6.28278394e-006
      9.79026572e-006 -3.70015619e-006 -4.32493016e-006 -4.42008832e-006
      -4.54835344e-006 -4.23596657e-006 -4.49249774e-006
      -4.45939031e-006 -4.49249774e-006 -4.49249774e-006
      -4.49249774e-006 -4.49249774e-006 -4.49249774e-006
      -4.49249774e-006 -4.49249774e-006 -4.49249774e-006
      -4.49249774e-006 -4.55256213e-006 -7.37558958e-006
      -7.49571836e-006 -7.67591155e-006 -7.55578276e-006
      -7.49571836e-006 -7.55578276e-006 -4.49249774e-006
      -4.49249774e-006 -4.61680929e-006 -4.49249774e-006
      -4.49249774e-006 -4.53914618e-006 -4.53914618e-006
      -4.53914618e-006 -4.52367567e-006 -4.63244305e-006
      -4.63244305e-006 -4.57658689e-006 -4.68829876e-006
      -4.74415492e-006 -4.46487502e-006 3.52104871e-006 3.81410405e-006
      -3.85280873e-006 -4.11626661e-006 -4.00961471e-006
      -3.95946108e-006 -3.74404158e-006 -4.58325758e-006
      -5.47941545e-006 -2.09147729e-005 -2.11146598e-005
      -2.35131465e-005 -2.41178805e-005 -2.10602775e-005
      -2.12347895e-005 -3.82108328e-006 -4.28660178e-006
      -3.95118150e-006 -3.92985066e-006 -4.02086471e-006 6.25969278e-006
      6.15050430e-006 6.00510657e-006 -3.09264601e-006 -6.18432296e-006
      1.21177491e-005 1.22519896e-005 1.21586927e-005 1.23741966e-005
      1.22110450e-005 1.20482846e-005 4.60735555e-006 4.57679135e-007
      4.82996938e-007 -2.36868777e-006 -1.26531459e-005 -1.39983085e-005
      -2.10130165e-005 -5.71152441e-006 -5.56091254e-006
      -1.10212363e-006 -3.45896160e-006 -5.55813949e-006
      -5.65917162e-006 -5.56587520e-006 -2.01308637e-007 6.23617098e-006
      6.09622566e-006 6.15060935e-006 6.09622566e-006 1.22415840e-005
      1.26766545e-005 1.25678871e-005 1.25135030e-005 1.25678871e-005
      1.25678871e-005 1.20240493e-005 1.25678871e-005 1.25781135e-005
      1.26553232e-005 1.45730201e-005 1.52340817e-005 1.51692120e-005
      1.53347373e-005 1.58284183e-005 1.66216923e-005 1.64791454e-005
      1.66094724e-005 3.01720502e-005 2.39173933e-005 1.61855078e-005
      1.40370639e-005 2.39649653e-005 2.38467073e-005 2.36931646e-005
      2.39128130e-005 2.37923232e-005 2.38349839e-005 1.99251135e-005
      1.98590060e-005 2.59638182e-005 3.50853807e-005 3.35857840e-005
      1.96939018e-005 2.00584509e-005 1.97463160e-005 1.21405037e-005
      5.55674387e-006 6.19357934e-006 1.59468782e-005 1.86914040e-005
      1.87178739e-005 1.21449393e-005 1.44004716e-005 1.75919540e-005
      1.75589012e-005 7.82459392e-006 1.92532534e-005 1.99563347e-005
      1.97282952e-005 1.98425751e-005 3.07617853e-007 -5.57945395e-006
      -5.83730207e-006 -5.49976903e-006 -5.65917162e-006
      -5.59306545e-006 -1.19948554e-005 -1.08898639e-005
      -5.73108809e-006 -5.83027804e-006 -5.56001260e-006
      -5.83024712e-006 -5.72031558e-006 -5.72031558e-006
      -5.49390643e-006 -5.65917162e-006 -5.74840624e-006
      -5.65917162e-006 -5.65917162e-006 -5.78145955e-006
      -5.62611876e-006 -5.65917162e-006 -5.65917162e-006
      -5.65917162e-006 -5.62611876e-006 -5.65917162e-006
      -5.65917162e-006 -5.62611876e-006 -5.65917162e-006
      -5.84986856e-006 -5.59306545e-006 -5.62611876e-006
      -5.91827757e-006 -5.68726227e-006 -5.69452777e-006
      -5.72031558e-006 -5.72127419e-006 -5.79524112e-006
      -5.72127419e-006 -5.70452812e-006 -1.12444004e-005
      -1.93049927e-005 -1.92886855e-005 -1.92596362e-005
      -1.91975341e-005 -1.91604777e-005 -1.92428906e-005
      -5.67147526e-006 -5.76663069e-006 -5.71683131e-006
      -5.75032391e-006 -5.65917162e-006 -5.59306545e-006
      -5.65917162e-006 -5.65917162e-006 -5.65917162e-006
      -5.65917162e-006 -5.62611876e-006 -5.62611876e-006
      -5.65917162e-006 -5.81391123e-006 -5.65917162e-006
      -5.76387674e-006 -5.76155890e-006 -5.62611876e-006
      -5.65917162e-006 -5.72618774e-006 -5.65917162e-006
      -5.76155890e-006 -5.65917162e-006 -5.76155890e-006
      -5.71152441e-006 -5.69545273e-006 -5.69313488e-006
      -5.83089286e-006 -5.65917162e-006 -5.53917835e-006
      -5.43937222e-006 -5.65917162e-006 -5.65917162e-006
      -4.73286946e-006 8.16360625e-006 8.10360871e-006 8.44340229e-006
      8.27687018e-006 8.27687018e-006 8.27687018e-006 8.27687018e-006
      8.27687018e-006 8.27687018e-006 8.27687018e-006 8.27687018e-006
      8.31848502e-006 8.17655655e-006 8.27687018e-006 8.17655655e-006
      8.27687018e-006 8.01754322e-006 1.40612901e-005 1.86218022e-005
      1.83165193e-005 1.93431679e-005 1.73791104e-005 2.58888685e-005
      2.10788839e-005 2.35226889e-006 -2.04800672e-005 -3.83379484e-005
      -2.25526837e-005 -1.55466605e-005 -1.68966435e-005
      -1.71304255e-005 -1.70580170e-005 -1.71304255e-005
      -1.71862812e-005 -1.68966435e-005 -1.71304255e-005
      -1.71304255e-005 -1.71304255e-005 -1.71304255e-005
      -1.71304255e-005 -1.71304255e-005 -1.71304255e-005
      -1.71304255e-005 -1.71304255e-005 -1.71304255e-005
      -1.73706831e-005 -1.71304255e-005 -1.74307479e-005
      -1.71304255e-005 -1.71304255e-005 -1.71304255e-005
      -1.71904903e-005 -1.71304255e-005 -1.71925822e-005
      -1.71925822e-005 -1.71304255e-005 -1.72547370e-005
      -1.71925822e-005 -1.71304255e-005 -1.71925822e-005
      -1.71925822e-005 -1.71862812e-005 -1.70231306e-005
      -1.70760432e-005 -1.71304255e-005 -1.71862812e-005
      -1.70760432e-005 -1.71862812e-005 -1.72421387e-005
      -1.70637122e-005 -1.70615986e-005 -1.71304255e-005
      -1.70760432e-005 -1.69128907e-005 -1.71159809e-005
      -1.70637122e-005 -1.71826941e-005 -1.71304255e-005
      -1.70393068e-005 -1.73897715e-005 -1.76569938e-005
      -1.67659491e-005 -4.53059010e-006 1.08767409e-007 0.
      5.44889751e-008 0. 0. 3.71183035e-007 -3.64477160e-007
      3.30530803e-008 -3.64477160e-007 5.44889751e-008 -1.04704860e-007
      4.66484025e-008 1.63151114e-007 -1.04704860e-007 0. 0.
      5.84462576e-008 -2.67466163e-007 -3.77875040e-007 -8.89186322e-006
      -1.14128297e-005 -1.24927474e-005 -1.51074337e-005
      -1.12521366e-005 -1.16222391e-005 4.06235801e-009 0.
      9.32968049e-008 0. 5.43837047e-008 3.42009429e-007 5.43837047e-008
      0. 9.32968049e-008 1.08767409e-007 0. 0. 7.61371894e-007 0.
      1.74027855e-006 5.43837047e-008 0. 1.53297015e-006 4.25365124e-006
      6.24064796e-006 1.58797218e-006 1.57712748e-006 0. 1.88209901e-006
      1.61018056e-006 1.71196075e-006 6.64753270e-006 1.80488871e-006
      6.46363333e-006 1.02076574e-005 6.25522034e-006 3.92521315e-006
      4.01464376e-006 4.05380615e-006 3.99942246e-006 3.90026344e-006
      4.06341451e-006 4.03247577e-006 3.82243479e-006 3.96636960e-006
      1.52485802e-006 6.94247592e-006 1.06471616e-005 7.79619586e-006
      -4.71747597e-007 -8.80745290e-007 -7.24338133e-006
      -7.17225066e-006 -1.24509938e-006 -1.13733302e-006 1.13290241e-006
      1.08100712e-005 5.13718442e-006 4.95796166e-006 4.87305442e-006
      7.82108236e-006 5.04539867e-006 1.73713306e-005 1.62079086e-005
      1.47821129e-005 2.21640835e-006 1.34952089e-007 -3.41333759e-007
      3.02348184e-007 6.16148463e-006 5.68578480e-006 5.98441375e-006
      5.91738990e-006 6.32689171e-006 6.02941418e-006 6.04871366e-006
      5.97279404e-006 6.15587987e-006 6.28008502e-006 4.96292432e-006
      -1.83431297e-007 6.94114669e-006 7.27167753e-006 7.30473039e-006
      7.30473039e-006 7.37083656e-006 7.23862422e-006 7.37083656e-006
      7.30473039e-006 7.23862422e-006 7.33778370e-006 7.37083656e-006
      7.33778370e-006 7.30473039e-006 4.40102212e-006 7.13946520e-006
      8.26823180e-006 8.36242907e-006 8.42853478e-006 8.19255820e-006
      8.36739127e-006 8.23057326e-006 2.07863945e-006 -1.94062693e-007
      -1.43824153e-007 1.73670642e-007 -3.33696192e-007 -1.15213929e-007
      -7.38611092e-008 -3.29692597e-007 7.90886497e-006 8.16425745e-006
      1.07844835e-006 -6.21025791e-008 3.30530803e-008 -9.11520814e-008
      -4.53563977e-008 -6.21025791e-008 0. 0. 6.61061605e-008
      1.65265391e-007 0. 0. 0. 0. 1.65265391e-007 -5.23524299e-008
      -2.04773968e-007 -1.69814722e-008 3.30530803e-008 -2.04773968e-007
      0. -1.71720885e-007 3.30530803e-008 -5.23524299e-008
      -1.69814722e-008 -5.23524299e-008 0. -1.57057286e-007 0.
      -8.63153744e-008 5.32676481e-008 0. 0. 1.13264399e-007 0.
      2.66338247e-007 1.79990252e-007 0. 0. 0. 0. 0. 0. 0. 0. 0.
      -1.70849006e-008 0. 0. -1.00313962e-007 8.32290539e-008 0.
      -5.01569787e-007 -4.57282749e-006 -8.80985044e-006
      -1.55220368e-005 2.40048121e-005 3.22545566e-005 -1.73919216e-006
      -2.23398511e-005 -2.01202711e-005 -2.61473397e-005
      -7.52165215e-006 1.44205683e-006 -5.01295681e-008 1.67099117e-007
      -2.17697320e-007 -5.01295681e-008 -5.01295681e-008
      -5.01295681e-008 -1.45287757e-007 2.22799947e-008 -5.01295681e-008
      -5.01295681e-008 -5.01295681e-008 -5.01295681e-008
      -5.01295681e-008 -5.01295681e-008 -5.01295681e-008
      -5.01295681e-008 -5.01295681e-008 -5.01295681e-008
      -5.01295681e-008 -1.10193980e-007 -5.01295681e-008
      -1.10193980e-007 -1.70258389e-007 -5.01295681e-008
      -5.01295681e-008 -1.12285363e-007 -1.27792759e-007
      -3.48116380e-009 -3.48116380e-009 -5.01295681e-008
      -5.01295681e-008 -5.01295681e-008 4.25413837e-009 4.25413837e-009
      -5.01295681e-008 -2.17697320e-007 2.78192669e-009 -1.61841399e-007
      5.86378448e-008 5.86378448e-008 -5.22685220e-008 5.43837047e-008
      -4.59229703e-008 0. -1.04537044e-007 -5.01533393e-008
      1.21096690e-007 1.87809675e-007 1.08767409e-007 -1.25809535e-007
      0. 0. -3.15774145e-007 -9.11192899e-008 -6.00644157e-008
      -3.08048101e-007 6.62990078e-006 3.59776379e-007 8.13622501e-006
      1.38135665e-005 1.40643651e-005 7.45056741e-006 9.91592373e-008
      2.94758458e-008 9.32968049e-008 -5.23524299e-008 0.
      4.66484025e-008 5.11007627e-008 0. -7.50350955e-006
      -1.16745914e-005 -1.13467231e-005 -1.16027059e-005
      -1.16064539e-005 -1.14668237e-005 -1.14185332e-005
      -1.14739732e-005 -1.14501408e-005 -6.85410578e-006 1.01032107e-007
      1.01032107e-007 0. 0. 0. 0. 0. 1.01032107e-007 0. 2.17534819e-007
      0. 1.08767409e-007 5.43837047e-008 0. 0. 0. -4.41572787e-008
      1.53542942e-007 6.61061605e-008 8.74367814e-008 -7.80881280e-008
      -7.80881280e-008 -1.11041976e-008 1.18993839e-007 1.88480925e-007
      1.19993501e-007 6.23780210e-008 0. 4.18235999e-007 3.30530803e-008
      1.11096620e-006 3.92159382e-006 3.85548765e-006 3.93331629e-006
      4.27134091e-006 3.90026344e-006 3.93331629e-006 4.05380615e-006
      4.99965972e-006 1.02514341e-005 1.04699675e-005 1.05872268e-005
      9.94746733e-006 8.01414080e-006 5.15305010e-006 4.91697983e-006
      5.34339870e-006 1.12137059e-005 1.13616970e-005 1.15618350e-005
      1.17580394e-005 1.12825437e-005 9.08797847e-006 1.13752394e-005
      9.74372779e-006 4.97312385e-006 4.79388018e-006 5.18434035e-006
      4.81358120e-006 5.05143362e-006 5.12723091e-006 3.86794045e-006
      1.39945215e-007 5.70006705e-006 6.21397885e-006 5.94341873e-006
      6.13805923e-006 5.93668938e-006 5.95319943e-006 6.19927505e-006
      5.93651930e-006 6.00798103e-006 5.99253235e-006 6.18092599e-006
      6.28008502e-006 6.12474423e-006 3.70194493e-006 6.61061605e-008
      7.04526838e-006 7.17748071e-006 7.27167753e-006 7.33778370e-006
      7.27167753e-006 7.40388987e-006 7.23862422e-006 7.30473039e-006
      7.30473039e-006 7.27167753e-006 6.80468520e-006 8.01869464e-006
      8.36242907e-006 8.42853478e-006 8.16216470e-006 8.42853478e-006
      8.07983815e-006 8.36242907e-006 8.11489735e-006 7.11319944e-006
      1.98277277e-007 -4.78651089e-007 -7.75494957e-009 4.54836968e-009
      -2.84775496e-007 2.08552677e-008 -7.75494957e-009 3.76014491e-008
      -3.21832147e-007 2.30097862e-006 8.30476893e-006 4.50439785e-007
      -2.90495006e-008 0. 6.61061605e-008 0. 0. 0. 6.61061605e-008 0. 0.
      6.61061605e-008 -5.23524299e-008 -1.50103659e-007 -1.04704860e-007
      7.98598876e-008 -1.04704860e-007 -2.00138203e-007 -9.74309751e-006
      -9.73523402e-006 -9.36876677e-006 -4.16501564e-007
      -1.57057286e-007 -5.09444185e-008 0. -1.04704860e-007
      -5.64900375e-008 0. 0. 1.79990252e-007 2.86525534e-007 0.
      1.19993501e-007 0. 0. 1.66532047e-007 0. 0. 0. 0. 0. 0. 0. 0. 0.
      -1.00313962e-007 8.32290539e-008 8.32290539e-008 -1.00313962e-007
      1.66458108e-007 0. -5.01569775e-006 -9.11651750e-006
      -1.54159970e-005 2.28962526e-005 3.15434081e-005 -7.00179771e-006
      -1.37734150e-005 -2.60095530e-005 -2.51599085e-005
      -7.48552429e-006 -3.02404572e-007 -7.45656408e-008 7.02534848e-008
      -9.11192899e-008 -2.02831117e-007 1.26109398e-007 -2.58687038e-007
      -9.11192899e-008 -1.46975211e-007 -1.46975211e-007
      -1.46975211e-007 -1.46975211e-007 -1.46975211e-007
      -1.46975211e-007 -1.46975211e-007 -1.46975211e-007
      -1.46975211e-007 -1.46975211e-007 -4.47297282e-007
      -2.07039619e-007 -4.47297282e-007 -1.46975211e-007
      -1.46975211e-007 -1.46975211e-007 -1.46975211e-007
      -1.46975211e-007 -2.71286808e-007 -1.39009114e-006
      -1.46975211e-007 -2.09131002e-007 -2.09131002e-007
      -1.46975211e-007 -1.46975211e-007 -3.67355817e-008
      -2.58687038e-007 7.20318312e-008 2.13861267e-006 -9.11192899e-008
      -3.67355817e-008 -2.04303333e-007 -9.11192899e-008 1.51074090e-007
      -2.47924845e-007 -9.11192899e-008 2.05457795e-007 -2.44063010e-008
      -1.43387808e-007 -1.41272622e-007 -9.11192899e-008
      -2.94571521e-007 -5.22685220e-008 -1.25739689e-007
      -2.40187802e-007 -1.12332934e-007 -5.22685220e-008
      -1.80123394e-007 1.19665301e-005 1.20716149e-005 1.19121469e-005
      2.15613272e-006 8.02599607e-006 1.38155765e-005 1.28433758e-005
      1.11198403e-007 -1.43387808e-007 -1.04620952e-007 2.11518336e-009
      4.10282830e-008 1.42060387e-007 -5.22685220e-008 1.23746975e-006
      3.86863661e-007 -5.22685220e-008 -1.62677409e-007 -5.62011859e-009
      2.11518336e-009 -6.76217087e-006 -1.05726858e-005 -1.05400222e-005
      -1.06467587e-005 -1.74556050e-007 -5.22685220e-008
      -5.22685220e-008 -5.22685220e-008 -5.22685220e-008
      -5.22685220e-008 -5.62011859e-009 -5.62011859e-009
      -5.22685220e-008 -5.22685220e-008 -5.22685220e-008
      -5.22685220e-008 -5.22685220e-008 2.11518336e-009 1.65266300e-007
      -5.22685220e-008 2.11518336e-009 -8.98901487e-009 -5.22685220e-008
      2.11518336e-009 2.11518336e-009 4.68907153e-008 -9.64258007e-008
      -5.22685220e-008 -1.40583083e-007 6.67253133e-008 6.09457596e-009
      9.99127892e-010 6.21119298e-008 -3.64290500e-008 7.01062461e-008
      1.38376368e-008 -8.73154278e-008 1.38376368e-008 -5.22685220e-008
      3.38525183e-006 3.97809299e-006 4.16468902e-006 3.88104809e-006
      3.80321922e-006 4.01326042e-006 3.90342302e-006 4.07730386e-006
      3.88104809e-006 3.93543178e-006 3.99000919e-006 2.00920726e-006
      4.79046548e-006 5.00485248e-006 9.87805561e-006 1.14221302e-005
      1.11845893e-005 1.14264785e-005 1.13656315e-005 1.17431728e-005
      8.45235627e-006 4.98787131e-006 5.16425553e-006 4.87936950e-006
      5.08455423e-006 4.93874632e-006 5.04180980e-006 4.46133208e-006
      4.88940805e-006 5.00859824e-006 -3.50633229e-007 -3.00477893e-007
      1.45530805e-006 6.03350145e-006 6.07630500e-006 6.16171019e-006
      5.88169496e-006 6.07328411e-006 6.19476350e-006 6.12865733e-006
      5.99644500e-006 6.12865733e-006 6.12865733e-006 6.00140720e-006
      4.51401866e-006 1.12996872e-007 6.41846157e-007 6.92193134e-006
      7.21940887e-006 7.31856835e-006 7.18635602e-006 7.25246218e-006
      7.21940887e-006 7.35162121e-006 7.38467452e-006 7.08259086e-006
      1.20437483e-006 -4.37937979e-006 7.31856835e-006 8.34321327e-006
      8.17830460e-006 8.31512261e-006 8.37626703e-006 8.19869820e-006
      7.97504072e-006 8.37626703e-006 5.15596230e-006 4.01400968e-007
      -1.50736270e-007 -2.49895493e-007 -1.71486022e-007
      -3.53790199e-007 -1.46670729e-008 3.11492454e-006 8.37626703e-006
      8.20270179e-006 8.37626703e-006 8.07849665e-006 5.13706482e-006
      1.46049956e-007 1.38376368e-008 -1.92154417e-008 -5.22685220e-008
      1.38376368e-008 -5.22685220e-008 -5.22685220e-008 -1.19284550e-007
      -6.92499924e-008 -1.23920302e-007 1.38376368e-008 -5.22685220e-008
      -7.95748565e-006 -9.88077136e-006 -9.84217240e-006
      -9.80911955e-006 -9.84217240e-006 -9.78982007e-006
      -1.00515826e-005 -9.92476180e-006 -8.58571457e-006
      -2.09325805e-007 -1.02303076e-007 7.72822695e-009 5.42667777e-008
      5.42667777e-008 6.77249758e-008 7.72822695e-009 -5.22685220e-008
      5.42667777e-008 -5.22685220e-008 7.72822695e-009 7.72822695e-009
      7.72822695e-009 7.72822695e-009 7.72822695e-009 7.72822695e-009
      7.72822695e-009 7.72822695e-009 9.09572861e-008 -1.92899691e-007
      -1.92899691e-007 7.72822695e-009 7.72822695e-009 -2.93213645e-007
      4.93427557e-008 -4.66541314e-006 -8.61991884e-006 -1.48955032e-005
      -1.48955551e-005 -1.34870843e-005 -2.11056631e-005
      -2.46869677e-005 -2.39795772e-005 -2.58350465e-005
      -1.01947226e-005 -5.03634851e-007 -5.01295681e-008
      -5.01295681e-008 -1.61841399e-007 -5.01295681e-008
      -5.01295681e-008 -2.17697320e-007 -5.01295681e-008
      -5.01295681e-008 -5.01295681e-008 -5.01295681e-008
      -5.01295681e-008 -5.01295681e-008 -5.01295681e-008
      -5.01295681e-008 -5.01295681e-008 -5.01295681e-008
      -5.01295681e-008 -1.10193980e-007 -5.01295681e-008
      -5.01295681e-008 -5.01295681e-008 -5.01295681e-008
      -5.01295681e-008 -2.30322811e-007 -5.01295681e-008
      -1.74441155e-007 -1.29324553e-006 -5.01295681e-008
      -1.12285363e-007 -1.12285363e-007 -5.01295681e-008
      -5.01295681e-008 -1.61841399e-007 -5.01295681e-008
      -1.05985485e-007 1.58138164e-006 -3.29409147e-007 -1.05985485e-007
      -5.01295681e-008 4.25413837e-009 1.33425971e-007 1.08767409e-007
      0. -2.61342620e-007 1.08767409e-007 1.44444643e-008
      2.29864099e-007 -1.04537044e-007 -1.20128831e-007 5.43837047e-008
      -6.00644157e-008 -2.73357870e-007 1.26415529e-007 -3.33422264e-007
      0. 1.18189118e-005 1.20732875e-005 8.70943313e-006 8.97852175e-008
      1.20595132e-007 1.08977950e-007 1.20595132e-007 2.74032800e-007
      1.08872676e-007 2.02064214e-007 -5.70402525e-009 2.17534819e-007
      5.43837047e-008 1.72887053e-006 2.66683287e-006 2.76012952e-006
      2.82021733e-006 7.13006614e-007 9.93098439e-008 1.01190516e-007
      -1.92993497e-008 -2.59070418e-007 6.73933940e-008 8.17327575e-008
      5.43837047e-008 3.10831638e-007 2.02064214e-007 0. 9.32968049e-008
      1.01032107e-007 5.43837047e-008 1.86593610e-007 0. 5.43837047e-008
      5.43837047e-008 0. 1.63151114e-007 0. 0. 0. 0. 3.30530803e-008
      3.30530803e-008 -2.22083951e-008 -4.41572787e-008 1.29220268e-007
      1.41820493e-007 -1.32471826e-007 1.41820493e-007 0.
      2.19799702e-007 1.35832963e-007 4.01696276e-008 1.74873563e-007
      2.75299470e-007 1.89217019e-007 1.53046571e-007 2.17534819e-007 0.
      5.43837047e-008 9.91592373e-008 0. 3.60278568e-006 4.03247577e-006
      3.86721013e-006 4.03359445e-006 4.06552863e-006 4.09646736e-006
      3.90026344e-006 3.97267286e-006 3.96931227e-006 4.02510250e-006
      1.61960088e-006 4.21381264e-006 5.18721936e-006 7.61750425e-006
      1.16492720e-005 1.14317372e-005 1.13752394e-005 7.66753874e-006
      5.16588852e-006 5.26137501e-006 4.71772864e-006 4.84593738e-006
      5.33115372e-006 4.52587528e-006 5.23199469e-006 5.28637611e-006
      4.85266673e-006 4.99101498e-006 1.20825996e-006 -1.24205158e-007
      4.27546684e-006 5.96481914e-006 5.87313889e-006 6.12643953e-006
      6.18092599e-006 6.11481983e-006 5.99253235e-006 6.31313833e-006
      6.04871366e-006 6.15283534e-006 6.28008502e-006 6.14787268e-006
      6.21894151e-006 6.18092599e-006 6.24703216e-006 3.96636949e-007
      2.31371564e-006 7.10641189e-006 7.27167753e-006 7.43694272e-006
      7.20557136e-006 6.85953410e-006 7.30242755e-006 -1.34383927e-005
      -1.25683528e-005 7.98830115e-006 8.26326959e-006 8.42853478e-006
      8.23057326e-006 8.18012450e-006 8.39548193e-006 8.27171607e-006
      8.39548193e-006 8.11401878e-006 8.42853478e-006 8.26727319e-006
      8.42853478e-006 8.36643267e-006 8.11445807e-006 8.23866321e-006
      8.38317919e-006 8.36643267e-006 8.39548193e-006 8.19687102e-006
      8.42853478e-006 8.42853478e-006 8.42853478e-006 8.39548193e-006
      8.32937621e-006 8.92433150e-007 9.91592373e-008 3.30530803e-008 0.
      -3.85986993e-008 0. -2.50172775e-007 -2.59444278e-007
      6.61061605e-008 -2.59444278e-007 -9.05001616e-006 -9.75685089e-006
      -9.94232596e-006 -9.99235999e-006 -9.80315963e-006
      -9.73755141e-006 -9.73755141e-006 -9.94787115e-006
      -9.91390789e-006 -2.09409720e-007 0. 5.99967507e-008
      1.79990252e-007 2.86525534e-007 1.59802951e-007 5.32676481e-008
      3.53251380e-007 0. 0. 0. 0. 0. 0. 0. 0. 0. -1.00313962e-007
      8.32290539e-008 -5.86994311e-008 0. 8.32290539e-008
      -1.00313962e-007 1.24843581e-007 -5.21632592e-006 -9.21110586e-006
      -1.53156834e-005 -2.45739539e-005 -1.84375822e-005
      -2.28075623e-005 -1.83561406e-005 -1.01396772e-005
      -1.54748723e-005 -2.96478629e-006 6.47829168e-008 1.61372768e-007
      -1.11711834e-007 1.44819126e-007 -1.11711834e-007 -1.11711834e-007
      0. -1.11711834e-007 -3.93022717e-008 0. 0. 0. 0. 0. 0. 0. 0. 0. 0.
      -6.00644157e-008 0. -1.20128831e-007 -1.80193240e-007 0. 0. 0.
      -6.21557987e-008 -1.24311597e-007 0. 0. 0. 0. 0. 0.
      1.63151114e-007 -1.13184043e-007 -1.11711834e-007 4.35069637e-007
      0. -5.58559172e-008 -1.47221157e-009 0. -1.56805569e-007
      1.21096690e-007 1.08767409e-007 6.28444354e-008 6.20185756e-006
      6.67129854e-008 0. 0. -3.33422264e-007 -1.20128831e-007
      -6.00644157e-008 -6.00644157e-008 1.76481230e-008 5.98220777e-006
      1.18619346e-005 5.05624530e-006 4.26093095e-007 0. 0.
      5.50586492e-008 3.26407502e-007 -1.87716527e-008 -3.67355817e-008
      0. -1.14080505e-008 9.32968049e-008 0. 3.42009429e-007
      2.82795258e-006 2.98336840e-006 2.71918520e-006 2.76680885e-006
      2.69785460e-006 2.65737526e-006 3.05533467e-006 1.01563833e-008 0.
      -3.64831294e-007 7.97014792e-008 0. 0. 1.39945215e-007 0. 0.
      9.32968049e-008 0. 5.43837047e-008 0. 1.08767409e-007
      3.26302228e-007 0. 1.63151114e-007 5.43837047e-008 1.08767409e-007
      0. 1.02264277e-008 -8.77769746e-010 -9.94736911e-006
      -1.11065629e-005 -1.09849352e-005 -1.11056852e-005
      -1.12601056e-005 -1.40280645e-006 -1.51882057e-006
      -1.10308483e-005 -3.88584021e-006 2.49097354e-007 6.61061605e-008
      -5.52614736e-008 5.32676481e-008 2.15302705e-007 3.30530803e-008
      9.91592373e-008 9.91592373e-008 5.43837047e-008 0. 0.
      3.30530803e-008 1.86596026e-007 3.76843900e-006 3.98527982e-006
      4.00895897e-006 4.28321437e-006 4.08160304e-006 4.00265571e-006
      3.96986843e-006 4.25182225e-006 3.86630063e-006 3.01109549e-006
      1.04275796e-005 1.12878024e-005 1.16823248e-005 5.52524398e-006
      4.95796166e-006 5.14890689e-006 4.78383481e-006 5.39327038e-006
      4.94266624e-006 6.48657448e-008 -5.12367251e-007 -2.34109223e-007
      -5.88467117e-007 -5.84470676e-008 -5.33251352e-007
      -3.11302330e-007 -1.36256048e-007 -2.36604478e-006 8.48046170e-007
      3.47451351e-006 5.86640954e-006 6.10011557e-006 6.18092599e-006
      6.21894151e-006 6.04871366e-006 6.21397885e-006 6.05863852e-006
      5.99749455e-006 6.14787268e-006 6.14787268e-006 6.24703216e-006
      6.01566035e-006 6.18092599e-006 4.32995330e-006 1.32212321e-007
      1.15685782e-006 6.87504053e-006 7.37083656e-006 7.43694272e-006
      -6.55742056e-008 1.90544540e-008 -9.08600123e-006 1.88925640e-007
      6.83410281e-006 6.99901148e-006 7.17021521e-006 7.96579207e-006
      8.21361755e-006 8.23822393e-006 8.24710969e-006 8.30432964e-006
      8.26326959e-006 8.13965107e-006 8.42853478e-006 8.30432964e-006
      8.38317919e-006 8.30432964e-006 8.18012450e-006 8.42853478e-006
      8.35012543e-006 8.42853478e-006 8.14306804e-006 8.42853478e-006
      8.32937621e-006 8.42853478e-006 8.39548193e-006 8.36242907e-006
      8.39548193e-006 8.36242907e-006 8.42853478e-006 2.70853275e-006
      -3.62808237e-008 0. 1.60716063e-008 -5.00345507e-008 0.
      -4.11865813e-007 0. -4.18819440e-007 -8.63815058e-006
      -9.68519907e-006 -9.84084818e-006 -8.74285524e-006
      -5.75876720e-006 -6.70160247e-008 -5.00345507e-008 2.26528797e-007
      5.32676481e-008 0. 1.13264399e-007 0. 2.39987003e-007 0.
      1.66532047e-007 0. 0. 0. 0. 0. 0. 0. 0. -1.00313962e-007 0.
      -1.00313962e-007 -2.59327351e-007 0. 0. 0. -4.67314158e-006
      -9.08117090e-006 -1.47902192e-005 -1.13185179e-005
      -1.92043008e-005 -2.24271607e-005 -1.81800733e-005
      -1.89482325e-005 -1.16713936e-005 -8.74227680e-006 8.05042930e-007
      0. 0. -1.11711834e-007 -9.51581853e-008 7.24095628e-008
      -3.93022717e-008 -5.58559172e-008 0. 0. 0. 0. 0. 0. 0. 0. 0. 0. 0.
      -6.00644157e-008 0. 0. 0. 0. -6.00644157e-008 -6.21557987e-008
      -6.21557987e-008 0. -6.21557987e-008 -6.21557987e-008 0.
      -6.21557987e-008 -6.21557987e-008 5.29114921e-008 -2.23423669e-007
      0. 5.43837047e-008 -1.11711834e-007 0. 0. 0. 0. 1.10882596e-007
      2.00138956e-007 2.88889286e-008 6.02451109e-007 1.14205784e-006
      -1.56805569e-007 5.64988873e-008 5.43837047e-008 -6.57451267e-008
      -5.46715739e-007 1.63151114e-007 9.26916437e-006 -3.02367397e-007
      1.08767409e-007 8.87787394e-007 5.44889751e-008 1.76481230e-008
      1.67929642e-007 6.61061605e-008 0. 0. 7.20318312e-008
      1.74978837e-007 2.50743909e-007 5.43837047e-008 0. 0.
      5.43837047e-008 2.65909762e-006 2.55603413e-006 3.07096116e-006
      2.45336059e-006 3.27032808e-006 2.51337292e-006 2.43780914e-006
      2.69011935e-006 1.82779058e-006 2.13786663e-007 0. 1.55415819e-007
      1.01032107e-007 0. 1.39945215e-007 9.32968049e-008 0.
      4.66484025e-008 1.39945215e-007 1.63151114e-007 0. 0.
      1.08767409e-007 0. 0. 0. 0. 8.74367814e-008 0. 2.04528554e-008
      5.43837047e-008 -4.41572787e-008 -8.83145574e-008 -8.87886381e-006
      -1.11939999e-005 -1.08060613e-005 -1.10991868e-005
      -9.95648679e-006 0. 1.68764160e-007 2.39367296e-007
      1.26110379e-007 0. 5.32676481e-008 2.70802474e-007 5.32676481e-008
      5.32676481e-008 5.32676481e-008 5.32676481e-008 2.28141218e-007
      5.32676481e-008 1.07651353e-007 -4.07635792e-009 2.13043322e-007
      5.43837047e-008 5.51224275e-007 4.30128330e-006 3.91633512e-006
      3.93331629e-006 3.96636960e-006 3.86721013e-006 4.42276996e-006
      2.69155134e-006 3.66889185e-006 4.95796166e-006 4.87396437e-006
      5.14455769e-006 3.98561224e-006 -5.33350794e-006 -6.89691251e-006
      -7.41068652e-006 -6.45929447e-007 6.64924130e-007 6.84813642e-007
      -3.53098812e-006 -3.18311595e-006 -9.47971500e-007
      -5.13888608e-007 -4.08360599e-008 9.85202973e-007 4.97171550e-006
      1.70444707e-006 1.56511453e-006 4.50018115e-006 6.21397885e-006
      6.05863852e-006 6.08672917e-006 6.21397885e-006 6.31313833e-006
      5.99253235e-006 6.21397885e-006 6.18092599e-006 6.21397885e-006
      6.24703216e-006 6.14787268e-006 6.28008502e-006 6.24703216e-006
      3.43752026e-006 1.61960088e-006 3.63583877e-006 -1.76961123e-007
      -1.32708237e-005 -1.50639898e-005 -4.43044446e-009
      -5.42327598e-006 6.38829260e-006 7.21053357e-006 6.86644808e-006
      7.33778370e-006 7.20957496e-006 7.43694272e-006 7.20557136e-006
      6.98621034e-006 8.42853478e-006 8.27127678e-006 8.42853478e-006
      8.10215442e-006 7.96608583e-006 8.39548193e-006 8.42853478e-006
      8.29246619e-006 8.10601159e-006 8.38317919e-006 8.39548193e-006
      8.42853478e-006 8.39548193e-006 8.42853478e-006 8.42853478e-006
      8.36242907e-006 8.42853478e-006 8.29632245e-006 8.42853478e-006
      8.17372711e-006 8.32383012e-006 8.31239413e-006 5.54737153e-006
      9.68155405e-007 0. -1.54739411e-007 -2.24073304e-007 0.
      -3.39629445e-008 -8.39974987e-008 -3.62808237e-008 0.
      -1.24004202e-007 0. 0. 2.33257893e-007 1.66532047e-007
      1.06535296e-007 5.99967507e-008 1.06535296e-007 1.19993501e-007 0.
      0. 0. 0. 0. 0. 0. 0. 0. -2.00627923e-007 4.16145269e-008
      8.32290539e-008 0. 0. -7.57843281e-008 -2.59327351e-007
      -4.91538412e-006 -8.98085727e-006 -1.51150562e-005
      -1.33566127e-005 -1.24182834e-005 -2.27672917e-005 3.09965941e-007
      -3.30812185e-007 -1.62837097e-007 -5.24700965e-007
      -7.05422508e-007 -5.58559172e-008 1.61372768e-007 7.24095628e-008
      0. -1.11711834e-007 -1.67567748e-007 0. -5.58559172e-008 0. 0. 0.
      0. 0. 0. 0. 0. 0. -6.00644157e-008 0. -1.20128831e-007 0.
      -6.00644157e-008 -6.00644157e-008 0. 0. 0. -1.86467389e-007 0.
      -6.21557987e-008 0. 0. 0. 0. 0. 5.29114921e-008 1.68589486e-006
      2.71771296e-006 2.06658069e-006 -2.94442315e-009 0.
      1.87809675e-007 -5.22685220e-008 5.43837047e-008 5.43837047e-008
      0. -1.02421858e-007 6.67129854e-008 0. -2.42303003e-007
      -9.11192899e-008 -5.68070924e-009 9.37793175e-006 1.02785207e-005
      1.02184558e-005 -1.51183698e-007 -3.67355817e-008 1.20595132e-007
      0. -9.11192899e-008 1.63151114e-007 5.44889751e-008
      1.38348526e-007 0. -9.11192899e-008 -5.70402525e-009 0.
      2.02064214e-007 -1.02673582e-007 0. 2.92898471e-006
      2.71754379e-006 2.66480151e-006 2.71242516e-006 2.81834446e-006
      2.71242516e-006 2.77560025e-006 2.82119254e-006 2.54282872e-006
      2.71918520e-006 2.64280470e-006 2.88233628e-006 1.94234281e-006
      5.98220765e-007 0. 9.32968049e-008 1.08767409e-007 1.55415819e-007
      0. 0. 1.08767409e-007 0. 0. 5.43837047e-008 1.08767409e-007 0.
      5.43837047e-008 0. 9.34865785e-009 3.30530803e-008 1.41820493e-007
      -5.52614736e-008 1.08767409e-007 3.30530803e-008 1.02264277e-008
      4.32795062e-008 2.13043322e-007 0. 1.59802951e-007 4.88925522e-008
      0. 0. 1.04974424e-005 0. 0. 0. 1.53542942e-007 0. 5.43837047e-008
      0. 5.43837047e-008 5.87448449e-006 1.07651353e-007 0.
      1.43909261e-007 5.87328586e-008 9.95160221e-008 1.62035064e-007
      1.14380455e-007 1.63151114e-007 3.07302639e-006 3.76067783e-006
      3.99942246e-006 3.83415727e-006 3.98769998e-006 3.73499802e-006
      2.76382639e-006 5.21253696e-006 4.78383481e-006 -3.57752265e-006
      -6.87158990e-006 -8.86139787e-006 -8.70006716e-006
      -8.43993712e-006 -8.82601762e-006 -7.34635842e-006
      -4.14628767e-006 4.93291600e-006 4.84130942e-006 4.95796166e-006
      4.89976856e-006 4.80612243e-006 4.65710491e-006 4.99597718e-006
      2.11539714e-006 -9.10421704e-007 9.55615178e-007 2.23467191e-006
      5.13651958e-006 6.24703216e-006 6.08672917e-006 6.18092599e-006
      6.21397885e-006 6.11481983e-006 6.21397885e-006 6.18092599e-006
      6.08176651e-006 6.28008502e-006 6.18092599e-006 4.53819666e-006
      -8.11262453e-007 -1.97499048e-005 -1.54887184e-005 5.31950373e-010
      -1.27262110e-005 -4.01938269e-006 4.33677678e-006 7.27568113e-006
      7.27167753e-006 7.11886196e-006 7.18052524e-006 7.27167753e-006
      7.20171420e-006 7.33778370e-006 8.00729140e-006 8.30476893e-006
      8.42853478e-006 8.42853478e-006 8.16826105e-006 8.36242907e-006
      8.30432964e-006 8.38317919e-006 8.23822393e-006 8.42853478e-006
      8.42853478e-006 8.36242907e-006 8.32937621e-006 8.42853478e-006
      8.42853478e-006 8.39548193e-006 8.42853478e-006 8.37618245e-006
      8.39548193e-006 8.42853478e-006 8.25772440e-006 3.37504548e-006
      -4.36332857e-006 -4.33027571e-006 -4.28024123e-006
      -4.00944737e-006 -8.22064351e-007 -5.09444185e-008 0.
      -1.92993497e-008 0. -5.00345507e-008 -5.23524299e-008
      1.06535296e-007 0. 0. 1.79990252e-007 0. 5.32676481e-008
      1.19993501e-007 0. 0. 0. 0. 0. 0. 0. 0. 0. 4.16145269e-008 0. 0.
      0. -1.70849006e-008 0. 0. -4.91538412e-006 -9.01620388e-006
      -1.53156834e-005 -2.27978526e-005 -1.73731532e-005
      -5.19782498e-006 -6.57772262e-007 1.32210175e-007 -2.05964255e-007
      9.57640168e-007 1.54896668e-007 0. 1.40195828e-008 0. 0.
      1.45030548e-008 -1.04482623e-007 -1.15659168e-006 -5.22413117e-008
      -1.95195412e-007 0. -1.57207410e-007 -4.53563977e-008
      -5.27247828e-008 6.67443629e-008 -2.56255532e-007 -9.07127955e-008
      -4.53563977e-008 0. 0. 0. 0. 0. 0. 0. 1.63151114e-007 0.
      1.08767409e-007 5.43837047e-008 0. 5.43837047e-008 0.
      1.08767409e-007 2.71918520e-006 1.90342962e-006 2.88233628e-006
      2.66480151e-006 2.71918520e-006 6.52604456e-007 5.43837047e-008 0.
      5.43837047e-008 0. 1.08767409e-007 -6.83585313e-008
      4.02439400e-006 -1.50691889e-007 0. 0. -1.20357328e-007 0.
      -5.79495740e-009 9.78906701e-006 1.02785207e-005 9.94062793e-006
      1.63151114e-007 0. -1.20357328e-007 -2.31401401e-007
      -2.99792532e-007 -1.16666520e-007 -6.47003304e-008 0.
      -3.59971210e-007 -5.00345507e-008 0. 0. -4.41572787e-008
      -1.76629115e-007 -1.00069101e-007 2.71918537e-007 1.03329035e-006
      1.52709288e-006 2.82795258e-006 2.88233628e-006 2.61041782e-006
      2.82795258e-006 2.89900549e-006 2.59315630e-006 2.79402184e-006
      2.71918520e-006 2.55514760e-006 2.71918520e-006 2.60377692e-006
      2.88233628e-006 2.78767493e-006 2.61528567e-006 2.71859130e-006
      2.67989572e-006 2.71918520e-006 1.87603757e-006 1.31981244e-006
      2.71343083e-006 9.63736042e-008 5.43837047e-008 9.25899428e-008
      5.88557860e-008 0. 0. 1.18993839e-007 0. -6.01380563e-008
      6.46101341e-008 -6.01380563e-008 0. 0. 7.10529022e-008 0.
      5.43837047e-008 5.43837047e-008 2.13158700e-007 6.03659146e-006
      1.54476784e-005 9.64652554e-006 7.81581889e-007 5.79801099e-006
      1.14205784e-006 0. 1.63151114e-007 0. 0. 2.50165044e-006
      -6.58924009e-008 -6.01380563e-008 0. 1.13054909e-006
      4.35069637e-007 5.43837047e-008 -1.20276113e-007 -1.20276113e-007
      1.08446834e-008 -6.01380563e-008 -2.79832904e-007 -1.86636021e-006
      -4.10662688e-006 -2.15773912e-006 -1.41507235e-006 3.37037613e-006
      3.01841533e-006 4.56132511e-006 5.02901457e-006 4.91198489e-006
      5.05712114e-006 5.06610468e-006 5.04601712e-006 5.06206788e-006
      5.05712114e-006 5.02406783e-006 5.12322731e-006 5.19922696e-006
      5.02406783e-006 5.15628017e-006 5.09512074e-006 5.05712114e-006
      1.43349382e-006 -2.33850528e-007 -6.18335605e-009 -3.27021644e-006
      -6.75486035e-007 1.04529477e-006 1.68934037e-006 6.07026641e-006
      6.21894151e-006 6.06255117e-006 1.44966089e-006 1.54740485e-006
      1.72196098e-006 1.63906975e-006 1.65277993e-006 1.63356447e-006
      -4.82686437e-006 -1.42537447e-005 -1.82683088e-005
      -5.71459668e-006 -2.86194131e-006 -5.38517284e-008 5.58181637e-006
      7.30473039e-006 7.24358688e-006 7.05023058e-006 7.37083656e-006
      7.27167753e-006 7.33778370e-006 7.37083656e-006 6.93628544e-006
      7.30473039e-006 7.13560803e-006 7.37083656e-006 7.45301440e-006
      8.28778775e-006 8.27843178e-006 8.39548193e-006 8.28310931e-006
      8.39548193e-006 8.39548193e-006 8.42853478e-006 8.33314425e-006
      8.38317919e-006 8.42853478e-006 8.33314425e-006 8.39548193e-006
      8.42853478e-006 8.37618245e-006 8.42853478e-006 8.28102748e-006
      8.27843178e-006 -2.09078871e-006 -4.96314033e-006 -8.60387536e-006
      -8.78255014e-006 -8.83258417e-006 -8.81328469e-006
      -7.51142807e-006 -4.59203784e-006 8.32383012e-006 4.44427451e-006
      -1.24004202e-007 6.67443629e-008 3.30530803e-008 -1.00069101e-007
      -1.00069101e-007 2.99392326e-007 -1.00069101e-007 3.30530803e-008
      -1.00069101e-007 9.53344994e-008 -3.00207319e-007 -4.53563977e-008
      0. 4.91246865e-008 -1.23033193e-008 -4.53563977e-008
      9.53344994e-008 -5.86994311e-008 -4.90982686e-008 0.
      3.18983595e-008 -3.74186993e-009 6.61061605e-008 -5.86994311e-008
      -5.00609667e-006 -8.25847201e-006 -1.35750388e-005 4.16289868e-006
      8.42837380e-006 1.41878290e-005 -4.82988639e-007 -5.50022094e-007
      6.34809624e-007 -7.68047641e-007 9.34206128e-007 -3.87051990e-008
      -5.22413117e-008 -5.27247828e-008 -1.67389970e-007 0.
      -3.51854078e-006 -6.43145631e-006 -6.26022938e-006
      -4.69250563e-006 -1.04482623e-007 -1.36069190e-007
      -1.58174345e-007 -1.56723928e-007 -3.46484853e-007 6.67443629e-008
      -9.04630397e-008 0. -9.07127955e-008 0. -9.07127955e-008 0.
      -4.53563977e-008 0. -4.53563977e-008 0. 1.08767409e-007 0. 0.
      3.26302228e-007 0. 1.63151114e-007 2.28411568e-006 2.71918520e-006
      2.71918520e-006 2.66480151e-006 3.04548757e-006 2.44726675e-006 0.
      0. 1.08767409e-007 0. -6.83585313e-008 9.24522965e-007
      6.51206983e-006 6.36289360e-006 0. 1.35201461e-007 0.
      5.43837047e-008 3.12038750e-008 -1.20357328e-007 1.00979842e-005
      1.01697533e-005 1.01153692e-005 2.88233628e-006 1.63151114e-007
      -1.08367814e-007 -6.47003304e-008 -1.98589578e-006
      -1.34800202e-005 -1.34744841e-005 -1.32920168e-005
      -1.99041756e-006 -1.87733917e-007 -1.50103659e-007
      -2.54717236e-007 5.43837047e-008 1.42105804e-007 0.
      -4.41572787e-008 8.40733918e-008 -4.41572787e-008 1.24844149e-007
      1.74027855e-006 2.67502787e-006 3.24138455e-006 2.66480151e-006
      2.77356889e-006 3.00777288e-006 2.57648708e-006 3.07882578e-006
      2.37187760e-006 2.90932803e-006 2.64862410e-006 2.54452539e-006
      2.91945844e-006 2.54265888e-006 2.84462180e-006 2.66907546e-006
      1.25176871e-006 3.53862873e-007 -5.17464514e-006 2.23989787e-006
      1.82602855e-006 1.08767409e-007 -7.21360962e-008 -4.41572787e-008
      5.43837047e-008 4.35835818e-006 5.05768458e-006 0.
      -3.57043263e-007 1.38678452e-005 5.82928305e-006 7.10529022e-008
      1.63151114e-007 0. 2.13158700e-007 1.20789934e-006 9.98512041e-006
      1.06579355e-005 1.58577259e-005 1.10842529e-005 1.08000413e-005
      1.08000413e-005 1.08921395e-005 4.42632518e-006 0. 0.
      8.11379437e-007 0. 0. -1.80414162e-007 1.63151114e-007
      6.47166098e-006 6.28549242e-006 1.08767409e-007 5.43837047e-008
      3.30530803e-008 -6.01380563e-008 -1.00069101e-007 -1.69814722e-008
      -5.13609244e-009 -4.30554655e-006 -6.15259887e-006
      -5.96421523e-006 -6.13661814e-006 -5.93309323e-006
      -5.93309323e-006 -4.26316518e-007 2.68573649e-006 3.04088326e-006
      5.03396132e-006 5.14303474e-006 5.12322731e-006 5.13312079e-006
      5.33143930e-006 4.92490881e-006 5.02406783e-006 5.12817405e-006
      5.26533313e-006 5.02406783e-006 4.81437655e-006 -1.34373721e-007
      -4.83833105e-007 -2.45478446e-007 -2.05442277e-007 8.13479772e-008
      -2.94961046e-006 -3.90476316e-006 2.29076454e-006 6.21662275e-006
      5.83211340e-006 6.05862260e-006 6.32810588e-006 5.31191745e-006
      2.19775552e-006 1.77128209e-006 1.83121711e-006 -6.24058157e-006
      -1.31237621e-005 1.69967063e-006 1.47930098e-006 2.24319547e-006
      1.68835095e-006 1.55615419e-006 5.79421385e-006 7.37083656e-006
      7.30473039e-006 7.21391370e-006 7.12964174e-006 7.02213993e-006
      7.37083656e-006 7.33778370e-006 7.25469590e-006 7.18858973e-006
      7.30087368e-006 6.93343281e-006 5.39976190e-006 6.92957610e-006
      7.12625206e-006 8.19716388e-006 7.42840803e-006 8.30476893e-006
      8.31239413e-006 8.32846581e-006 8.26326959e-006 8.37850075e-006
      8.26703854e-006 8.42853478e-006 8.42853478e-006 8.00846101e-006
      8.42853478e-006 8.36643267e-006 8.30432964e-006 8.29632245e-006
      5.61760635e-006 -5.89948922e-006 -8.93728975e-006 -8.46520743e-006
      -8.93728975e-006 -8.78023184e-006 -8.73019781e-006
      -6.45546379e-006 7.95736378e-006 8.17836280e-006 8.39548193e-006
      8.39548193e-006 8.42853478e-006 4.49649542e-006 -1.00069101e-007
      1.65903600e-007 8.28159727e-008 0. -2.40816462e-007
      3.30530803e-008 6.61061605e-008 1.45118932e-007 -9.07127955e-008
      -8.78222366e-008 6.22814227e-008 -9.53909520e-008 4.16145269e-008
      1.32212321e-007 1.50412930e-007 4.16145269e-008 -1.24920604e-007
      1.24843581e-007 -3.69099595e-008 -4.81507004e-006 -5.79706966e-006
      -7.09699680e-006 3.65366213e-006 9.92819787e-006 1.19616943e-005
      5.71870942e-008 3.31077359e-007 -3.60923480e-007 -8.11668102e-008
      -7.41461520e-007 1.33488726e-007 2.00233103e-007 6.67443629e-008
      0. -1.57207410e-007 -2.63623917e-007 8.12474212e-008
      -1.58077648e-006 -3.54570432e-007 -1.29417998e-007
      -3.66172657e-007 0. -1.58174345e-007 0. -2.72826878e-006
      -8.42963891e-006 -1.00691204e-005 -9.97840743e-006
      -1.00691204e-005 -8.84449764e-006 -1.17926641e-006 0.
      -9.07127955e-008 0. 0. 1.63151114e-007 5.43837047e-008 0.
      1.08767409e-007 0. 0. 1.63151117e-006 2.93671997e-006
      2.66480151e-006 2.99110388e-006 2.61041782e-006 0. 5.43837047e-008
      5.43837047e-008 0. -2.05075594e-007 -1.36717063e-007 0.
      6.36289360e-006 6.48412015e-006 0. 0. -1.36717063e-007 0. 0.
      3.69229701e-006 1.00609850e-005 1.00493953e-005 1.03756975e-005 0.
      -4.15232762e-006 -1.28180554e-005 -1.37207353e-005
      -1.34168959e-005 -1.36482968e-005 -1.18450525e-005
      -1.09041389e-006 0. -2.68615565e-007 0. -1.00069101e-007
      -2.38418210e-007 1.25436600e-007 5.87328586e-008 4.14712034e-008
      -8.83145574e-008 0. 0. 7.10529022e-008 2.17534819e-007
      1.84904593e-006 2.18557466e-006 2.17475576e-006 2.05576180e-006
      2.30078490e-006 1.76073138e-006 2.82131191e-006 2.57112833e-006
      2.82795258e-006 3.03358547e-006 2.77356889e-006 3.55515090e-006
      9.04042736e-006 9.86702344e-006 2.73906335e-006 -3.40772800e-007
      2.02962539e-007 1.59293734e-006 3.59377759e-006 1.99302895e-006
      -6.20242099e-006 -1.12319294e-005 1.09659986e-005 1.20187988e-005
      1.15165549e-005 -2.37044215e-008 1.38678452e-005 1.36061526e-005
      4.35069660e-006 2.44726675e-006 5.43837047e-008 2.84211609e-007 0.
      1.08767409e-007 0. 2.62895742e-006 8.17108321e-006 8.13774477e-006
      7.88687157e-006 8.24213657e-006 9.22104300e-006 1.43752022e-005
      1.30629114e-005 6.66815049e-006 6.52604467e-006 0. 5.43837047e-008
      5.43837047e-008 0. -5.75434811e-009 1.08767409e-007
      -6.01380563e-008 -6.01380563e-008 -6.11387492e-008 1.32212321e-007
      -1.64433388e-007 -2.08590663e-007 -4.41572787e-008 6.61061605e-008
      0. -4.02065552e-006 -1.14353281e-006 7.32379704e-006
      7.11962184e-006 7.47276590e-006 7.22960522e-006 6.56918382e-006
      1.30705860e-006 -1.00069101e-007 7.10529022e-008 4.39605947e-006
      5.05712114e-006 5.33143930e-006 5.05712114e-006 4.99101498e-006
      4.95796166e-006 5.22733308e-006 5.12322731e-006 -6.63908395e-007
      8.13479772e-008 -1.40098791e-007 -3.77690753e-007 -1.35136389e-007
      -2.83493904e-007 -2.28570556e-007 -5.14130420e-007 2.95831433e-006
      7.45967782e-007 5.94234189e-006 6.28008502e-006 5.99253235e-006
      5.75259219e-006 6.18587273e-006 5.06519882e-006 -9.05760771e-006
      4.45071191e-006 6.06418780e-006 5.83321207e-006 6.24703216e-006
      6.10944198e-006 5.87392560e-006 6.21397885e-006 2.61119317e-006
      4.04240063e-006 7.33778370e-006 7.13946520e-006 7.24358688e-006
      7.30969305e-006 7.17748071e-006 7.20171420e-006 7.25469590e-006
      6.90332672e-006 5.37342385e-006 5.08989206e-006 5.02460716e-006
      4.78002266e-006 4.85548480e-006 5.09457050e-006 6.29753322e-006
      2.74340550e-006 1.65265396e-006 6.90423667e-006 8.42853478e-006
      8.32937621e-006 8.08764980e-006 8.27843178e-006 8.30432964e-006
      8.17836280e-006 8.32846581e-006 8.25772440e-006 8.17372711e-006
      8.30432964e-006 8.17140881e-006 3.94552580e-006 3.66909990e-006
      4.10258281e-006 3.87387399e-006 3.91479034e-006 3.89549132e-006
      4.59305420e-006 8.21912545e-006 8.57873420e-006 8.51198911e-006
      8.62876823e-006 8.31239413e-006 8.44524493e-006 8.69678934e-006
      9.58539317e-007 1.67098140e-008 1.24562845e-007 -1.86103748e-007
      -3.77876859e-008 -5.00345507e-008 8.21777633e-008 -3.39629445e-008
      0. 2.07497592e-008 3.78726597e-008 -3.00941878e-007 0.
      1.32212321e-007 4.16145269e-008 -9.07127955e-008 -2.00627923e-007
      -4.88233081e-006 -8.21584217e-006 -1.29042164e-005
      -1.02539079e-005 -5.89248020e-006 7.73319414e-007 -5.29519127e-007
      3.14983680e-007 -4.02560971e-007 -3.40021671e-007 -4.47046745e-007
      0. 0. -4.72589164e-007 2.00233103e-007 -1.05449566e-007
      2.66977452e-007 0. 1.33488726e-007 -2.02563797e-007 0.
      2.13879670e-008 1.45030548e-008 -9.14299818e-008 -1.42954107e-007
      -1.58174345e-007 -9.75977059e-008 0. -4.53563977e-008 0. 0. 0.
      -9.07127955e-008 0. 0. 5.43837047e-008 0. 5.43837047e-008 0. 0.
      5.43837047e-008 0. 0. 5.43837075e-007 2.82795258e-006
      2.77356889e-006 2.66480151e-006 1.08767409e-007 0. 5.43837047e-008
      5.43837047e-008 0. 0. -2.05075594e-007 5.65590517e-006
      6.36289360e-006 -2.05075594e-007 5.43837047e-008 4.04088780e-008
      -1.20357328e-007 -1.26152287e-007 0. 9.94062793e-006
      1.01697533e-005 1.01697533e-005 -1.80535991e-007 1.08767409e-007
      -4.04469546e-007 0. -1.80535991e-007 -2.89734658e-007 0.
      -1.85057658e-007 -6.47003304e-008 -5.00345507e-008
      -1.17330757e-007 -4.41572787e-008 0. -2.76698216e-007
      1.18966874e-007 -1.76629112e-006 -3.43031786e-007 4.40892990e-007
      -8.83145574e-008 1.62558663e-007 -8.83145574e-008 6.46101341e-008
      2.13158700e-007 1.79820304e-007 5.43837047e-008 -8.83145574e-008
      1.08767409e-007 0. -1.98166546e-007 -1.20276113e-007
      1.79820304e-007 -7.74946756e-008 2.44269427e-006 8.72283726e-006
      8.40607208e-006 1.13050774e-005 1.14377890e-005 1.10528263e-005
      1.83864686e-005 1.85475528e-005 1.68929782e-005 1.00583256e-005
      -1.92609889e-007 1.17353720e-005 1.21275662e-005 1.00110738e-005
      3.97001031e-006 1.36752351e-005 1.34871589e-005 2.65329277e-006
      2.77356889e-006 7.10529022e-008 1.63151114e-007 2.13158700e-007
      2.34204009e-007 0. 3.59640609e-007 5.43837047e-008 7.10529022e-008
      7.10529022e-008 0. 1.25436600e-007 7.61371894e-007 2.71918520e-006
      2.09991913e-006 0. 5.43837047e-008 -6.01380563e-008
      -1.80414162e-007 5.43837047e-008 -5.65297705e-006 -1.52149278e-005
      -1.53352030e-005 -1.10884193e-005 -9.02070781e-007
      -1.87292130e-007 -1.00069101e-007 -3.39629445e-008
      -1.27154081e-007 -8.83145574e-008 -1.49362478e-007
      -6.01380563e-008 -5.00345507e-008 1.69001424e-007 5.50019621e-008
      -1.43983709e-006 1.10993205e-005 1.33579451e-005 1.33289295e-005
      1.31728930e-005 2.19274648e-006 4.26317399e-007 3.30530803e-008
      1.81791938e-006 5.06701463e-006 5.15628017e-006 4.99596172e-006
      5.12322731e-006 4.79220125e-006 -2.67348724e-007 -5.32141144e-007
      -2.78849086e-007 2.73148206e-008 -3.44955254e-007 -6.90302357e-008
      -1.61523957e-007 -2.73794409e-008 5.16122691e-006 5.06505285e-006
      4.37684412e-006 2.74123022e-006 3.34667880e-006 6.46513763e-006
      6.06024832e-006 3.51858125e-006 -8.85012469e-006 4.33096648e-006
      5.81043332e-006 6.46513763e-006 5.88960484e-006 5.54533381e-006
      1.01675903e-006 5.53485279e-006 5.97278404e-006 6.11481983e-006
      6.02062300e-006 2.30051205e-006 1.75181322e-006 6.11481983e-006
      7.24696702e-006 7.33778370e-006 7.00248620e-006 7.37083656e-006
      7.35853337e-006 5.53583095e-006 4.95382301e-006 4.94619781e-006
      5.16067666e-006 4.86687850e-006 4.89239483e-006 4.86778845e-006
      6.43737076e-006 7.23862422e-006 7.04489548e-006 2.26368093e-006
      1.57424449e-006 1.65265396e-006 1.33574292e-006 1.38822929e-006
      8.15856492e-006 8.42853478e-006 8.10187430e-006 8.39548193e-006
      8.36242907e-006 8.27843178e-006 8.39548193e-006 8.36242907e-006
      8.37850075e-006 8.37618245e-006 8.37618245e-006 7.97449866e-006
      8.32846581e-006 1.38822929e-006 0. 5.88253806e-006 7.86918554e-006
      8.42853478e-006 8.22839684e-006 8.49527987e-006 8.42853478e-006
      8.34544790e-006 2.42979991e-006 1.00766397e-006 0. 6.69031195e-008
      5.07750642e-008 -2.36138305e-007 6.22814227e-008 3.30530803e-008
      -4.27312514e-008 -2.81739545e-007 -4.53563977e-008 7.09257364e-008
      6.61061605e-008 9.91972371e-008 -4.72763440e-006 -1.85911153e-006
      3.28576721e-006 -3.49559850e-005 -3.36824196e-005 -8.12482722e-006
      -1.28929169e-005 -1.16559258e-005 -1.38804216e-005
      -2.44481726e-006 -3.50375529e-007 -1.57690877e-007 3.33721829e-007
      6.67443629e-008 0. -5.27247828e-008 0. -1.80442612e-007
      -1.04966091e-007 0. -3.06562953e-007 -1.58174345e-007
      -9.75977059e-008 -8.40615968e-008 -2.63140436e-007
      -5.22413117e-008 0. 0. -4.53563977e-008 -9.07127955e-008
      -1.36069190e-007 0. 0. 0. -4.53563977e-008 5.43837047e-008 0. 0.
      5.43837047e-008 1.08767409e-007 1.08767409e-007 0. 0. 0.
      2.17534830e-006 2.71918520e-006 5.43837075e-007 0. 1.08767409e-007
      0. 0. -2.87408938e-007 -6.83585313e-008 2.22973199e-006
      6.21220170e-006 6.52604467e-006 -1.39748257e-008 0. 0.
      5.43837047e-008 0. 0. 1.08767415e-006 7.98370706e-007 0.
      2.17534819e-007 0. -6.01786638e-008 -1.16666520e-007
      -2.26879735e-007 0. -5.95894278e-007 -1.25044903e-006
      -2.82683095e-006 -4.22771245e-006 -4.24705968e-006
      -4.22756966e-006 -4.00641284e-006 -3.00207307e-006
      -4.05357605e-006 -2.78190851e-006 -7.90507571e-008
      -4.41572787e-008 7.10529022e-008 -4.41572787e-008 7.10529022e-008
      1.42105804e-007 5.43837047e-008 -8.83145574e-008 2.68956235e-008
      2.13158700e-007 -5.00137460e-008 0. -1.15086962e-008
      -2.21277119e-007 -1.20276113e-007 -1.09361260e-007
      -3.25176671e-007 -1.59169772e-007 7.36127140e-006 8.17800901e-006
      8.42947429e-006 -2.15576688e-006 -5.40767132e-006 -5.34586343e-006
      -5.31797969e-006 -6.52882545e-006 -7.77507194e-006 1.17782465e-005
      1.19848683e-005 8.97331120e-006 1.35504870e-005 1.38077066e-005
      2.93671997e-006 4.15361455e-006 2.89900549e-006 5.43837047e-008
      5.43837047e-008 0. 7.10529022e-008 1.08767409e-007 0.
      7.10529022e-008 0. 3.92979018e-007 5.43837047e-008 1.96489509e-007
      1.42105804e-007 1.08767409e-007 5.43837047e-008 1.08767409e-007
      -5.75434811e-009 -9.20112234e-006 -1.19073347e-005
      -1.51720524e-005 -1.53352030e-005 -1.27492676e-005
      -4.26720732e-007 0. -7.80293945e-008 0. -2.22083951e-008
      -4.77908270e-006 -9.60610760e-006 -6.03078661e-006
      -1.81324026e-007 0. 2.41265042e-007 -8.39974987e-008
      1.42105804e-007 1.70212132e-007 0. -5.00345507e-008
      -2.31389290e-008 -1.00069101e-007 0. 0. 1.04105979e-007
      2.84211609e-007 0. 1.38822929e-006 4.03742251e-006 4.99101498e-006
      5.04065838e-006 4.42922055e-006 -2.47186154e-006 -3.96444784e-006
      -1.31434299e-005 -1.24905273e-005 -1.28988549e-005
      -1.29212203e-005 -5.24282484e-007 5.10019527e-006 5.00760507e-006
      4.96788653e-006 4.80414110e-006 4.85124929e-006 4.07936659e-006
      2.66096413e-006 -1.13834021e-005 -9.20189905e-006 4.70779287e-006
      6.22738526e-006 5.56274335e-006 6.06360072e-006 -2.49810864e-006
      -3.29465001e-006 -3.20712320e-006 1.68437805e-006 6.28842736e-006
      5.96782138e-006 6.11481983e-006 6.18092599e-006 6.11481983e-006
      4.07387097e-006 1.48647871e-006 3.66889185e-006 7.10550239e-006
      7.02241459e-006 7.30473039e-006 -2.34415282e-007 -1.35775304e-006
      -2.11945553e-006 -2.71285694e-006 2.49715390e-006 7.27076758e-006
      7.27167753e-006 7.25469590e-006 7.13855525e-006 7.01561066e-006
      7.15553688e-006 7.03042178e-006 6.43980502e-006 2.13315434e-006
      7.74088585e-006 8.36643267e-006 8.39548193e-006 8.21912545e-006
      8.32614842e-006 8.37618245e-006 8.37850075e-006 8.29077726e-006
      8.27611348e-006 8.32937621e-006 8.17927230e-006 8.42853478e-006
      8.37618245e-006 8.62876823e-006 8.39548193e-006 8.56202405e-006
      8.42853478e-006 8.06495154e-006 1.28816021e-006 5.23973449e-006
      8.49527987e-006 8.40010398e-006 8.52004541e-006 8.42853478e-006
      8.54448263e-006 8.39548193e-006 8.39548193e-006 2.07851917e-006
      -5.00345507e-008 -4.90982686e-008 8.68559198e-008 1.66458108e-007
      -1.00313962e-007 -6.72608778e-008 -2.00627923e-007
      -3.12959151e-006 -5.72025783e-006 -7.40649102e-006
      -1.91434947e-006 -2.58437703e-005 -1.60060845e-005
      -2.90620992e-005 -1.41275723e-005 -5.58490456e-007
      -1.15427165e-005 -9.68150516e-007 1.26535383e-007 -5.27247828e-008
      1.45030548e-008 -2.62173501e-007 -3.03047955e-006 -1.13741025e-005
      -1.15172907e-005 -1.14930881e-005 -1.15453295e-005
      -1.13455799e-005 -1.16668962e-005 -1.13363649e-005
      -1.17552618e-005 -1.16951687e-005 -1.15453295e-005
      -4.53563977e-008 -8.35781293e-008 0. 0. 0. 0. -1.81425591e-007
      -4.53563977e-008 0. 0. 5.43837047e-008 5.43837047e-008 0. 0. 0. 0.
      0. 5.43837047e-008 1.63151114e-007 0. 5.98220765e-007 0.
      5.43837047e-008 1.08767409e-007 5.43837047e-008 0. 0.
      2.64340532e-008 2.39288306e-006 6.22617654e-006 6.28056023e-006
      8.15755584e-007 0. -1.36717063e-007 5.43837047e-008
      -1.20357328e-007 1.08767409e-007 5.43837047e-008 -1.80535991e-007
      5.43837047e-008 -6.01786638e-008 0. -2.33333040e-007
      -1.20357328e-007 -2.35092216e-007 -2.89734658e-007
      -6.01786638e-008 0. -1.87733917e-007 -1.74913552e-007
      -3.29223525e-007 -2.75190041e-006 -4.58554678e-006
      -3.77476772e-006 -3.95927259e-007 5.91784374e-006 6.39911013e-006
      6.11054929e-006 5.89739057e-006 6.10351435e-006 4.68304870e-006
      1.77632251e-006 9.79485222e-008 7.10529022e-008 1.79820304e-007
      -3.39308492e-008 6.46101341e-008 1.02264277e-008 -2.79788157e-008
      -3.60828324e-007 4.14024328e-007 -1.92704846e-007 -3.09443431e-006
      5.17813135e-007 -6.13655857e-007 5.95854908e-006 4.26247198e-006
      -1.66311002e-005 -1.68456700e-005 -1.15430385e-005
      -6.71392036e-006 -7.03224896e-006 -1.52431039e-005
      -3.26202098e-006 -2.21874572e-007 3.79478547e-006 1.36874305e-005
      1.37046936e-005 -6.01380563e-008 5.92466392e-007 5.43837047e-008
      0. 0. 1.25436600e-007 1.63151114e-007 1.42105804e-007
      2.17534819e-007 1.25436600e-007 1.25436600e-007 7.10529022e-008
      2.50873200e-007 0. 2.17534819e-007 2.13158700e-007 0.
      2.13158700e-007 0. -3.00690260e-007 -6.01380563e-008 0. 0.
      -6.58924009e-008 -6.01380563e-008 1.08767409e-007 0.
      -2.00138203e-007 3.90211845e-008 -5.00345507e-008 -5.00345507e-008
      3.30530803e-008 -1.64433388e-007 -7.81202232e-008 0.
      1.42105804e-007 5.40714282e-008 0. -5.00345507e-008
      8.80550388e-008 -6.70160247e-008 1.42105804e-007 3.12317951e-007
      1.42105804e-007 7.10529022e-008 1.65265391e-007 0. 7.10529022e-008
      2.13158700e-007 3.30530803e-008 -7.72889663e-008 3.70144949e-006
      -6.59910256e-006 -1.14892900e-005 -1.16215024e-005
      -7.90666945e-006 -7.50331674e-006 -7.38782228e-006
      -7.50561958e-006 -7.76607430e-006 5.23199162e-007 4.79231858e-006
      4.95808945e-006 5.09017400e-006 4.85523378e-006 -1.01084734e-005
      -1.01005298e-005 -1.13535143e-005 -2.63262041e-006 2.79627693e-006
      5.06920014e-006 6.06519507e-006 6.13361954e-006 -3.34890365e-006
      -3.13267446e-006 -3.11788858e-006 -3.45666058e-006 1.50590904e-006
      5.99929217e-006 5.87520708e-006 6.15779754e-006 6.08672917e-006
      6.05625019e-006 6.26778183e-006 6.04871366e-006 2.74340550e-006
      1.60261936e-006 4.05815292e-008 -5.16731234e-007 -3.50555979e-007
      -2.58112038e-007 -5.99818861e-007 -4.16662147e-007
      -5.20588117e-007 7.05719867e-006 7.34155174e-006 7.17251805e-006
      7.46999604e-006 7.20957496e-006 7.33778370e-006 7.24262782e-006
      7.13623740e-006 1.48738854e-006 0. 5.55692077e-006 7.22473669e-006
      8.27702388e-006 8.42853478e-006 8.32846581e-006 8.37618245e-006
      8.22839684e-006 8.29077726e-006 8.42853478e-006 8.34544790e-006
      8.34544790e-006 8.32846581e-006 8.49527987e-006 8.37850075e-006
      8.22930724e-006 8.62940669e-006 8.32846581e-006 8.37850075e-006
      8.39548193e-006 7.99793543e-006 7.12328074e-006 8.38317919e-006
      8.42853478e-006 8.60387354e-006 1.21737294e-005 8.49081698e-006
      8.35275114e-006 8.29632245e-006 3.37986057e-006 8.48443804e-009
      -1.23033193e-008 -2.07071949e-007 -2.65523977e-006
      -5.46737465e-006 -7.37869595e-006 -1.96746805e-006 3.43580996e-006
      1.19360730e-005 -4.00974250e-006 -3.31142564e-006 -1.47054643e-005
      -1.89781604e-005 -1.91375898e-006 -2.10563854e-007 7.15483282e-008
      0. -4.23299662e-006 -1.13683318e-005 -1.15458133e-005
      -7.85988686e-006 -5.16687669e-006 4.30434397e-007 -1.11693153e-005
      -1.14495788e-005 -1.18079870e-005 -1.14339618e-005
      -1.16429273e-005 -1.16507790e-005 -7.41826625e-006
      -1.56723928e-007 0. -1.36069190e-007 -9.07127955e-008 0.
      -1.36069190e-007 0. 0. -4.53563977e-008 0. 0. 5.43837047e-008 0.
      0. 1.08767409e-007 2.17534819e-007 0. 0. 0. 0. 5.43837047e-008 0.
      0. 0. 5.43837047e-008 4.04088780e-008 0. -1.50691889e-007
      6.47166098e-006 6.56645352e-006 3.86124293e-006 1.63151114e-007 0.
      0. -6.01786638e-008 0. 0. 1.63151114e-007 2.17534819e-007
      -6.59736230e-008 0. -6.47003304e-008 -1.24878994e-007
      -2.33333040e-007 -1.89579325e-007 -2.44135549e-007
      -1.76845177e-007 -6.01786638e-008 -5.83332600e-008
      -1.87897751e-008 -9.41918259e-008 0. -1.00069101e-007
      -2.20786390e-007 6.01048032e-006 5.88012927e-006 5.98946190e-006
      6.03949638e-006 6.03949638e-006 6.03949638e-006 6.24562017e-006
      5.22398386e-006 2.09824861e-006 -2.20786390e-007 -1.15571686e-006
      -3.87502041e-006 -9.56634631e-006 1.66063114e-006 6.44417287e-006
      5.99513305e-006 6.37311996e-006 -3.32484160e-006 -4.45876185e-006
      -4.39346331e-006 -4.15281647e-006 -4.48246601e-006
      -1.21394014e-005 -2.57903639e-006 -2.56019985e-006
      -2.22538915e-006 -1.21312905e-005 1.21275662e-005 1.19586612e-005
      1.17468799e-005 7.22024197e-006 1.38678452e-005 5.83950941e-006
      -2.96905228e-007 -9.21263108e-006 0. 1.96489509e-007 0. 0.
      1.42105804e-007 1.08767409e-007 0. 1.42105804e-007 0. 0. 0.
      1.30520891e-006 1.14205784e-006 5.43837047e-008 5.39460927e-007 0.
      1.63151114e-007 0. 0. 1.63151114e-007 0. -1.80414162e-007 0.
      -6.01380563e-008 -5.00345507e-008 -6.52741434e-008
      -3.64571605e-007 -6.01380563e-008 -2.70849743e-008
      -2.38418210e-007 -1.44226377e-007 0. -1.11041976e-008
      1.85073034e-007 -4.41572787e-008 -2.12057993e-009 1.63124156e-007
      -2.90162046e-008 1.32212321e-007 4.20366959e-008 0. 0.
      3.30530803e-008 7.10529022e-008 0. 9.91592373e-008 0.
      1.75158874e-007 -3.29255592e-008 -4.41741668e-006 -4.16757393e-006
      -1.41871044e-006 -2.53286796e-008 3.76151297e-006 -3.33921457e-006
      -3.54337089e-006 -2.98240570e-006 -5.93723735e-006
      -3.50912251e-006 5.02406783e-006 4.92260597e-006 4.54411020e-006
      4.66253368e-006 -9.92676360e-006 -7.88982470e-006 -5.02089824e-006
      9.80414188e-006 6.89857006e-006 3.33605817e-006 7.56310783e-007
      2.16214357e-006 4.99967564e-006 4.72511010e-006 -8.15224212e-007
      -3.27322937e-006 -9.91060460e-007 6.09010885e-006 6.12316217e-006
      6.18092599e-006 6.21397885e-006 6.14787268e-006 5.95241272e-006
      5.99776922e-006 6.09783820e-006 6.18092599e-006 6.24703216e-006
      3.16278101e-006 -4.43133513e-006 -6.00263274e-006 -6.05357718e-006
      -2.19126218e-006 7.05628793e-007 7.23862422e-006 7.19326817e-006
      7.17069861e-006 7.12248357e-006 7.27167753e-006 7.13217651e-006
      7.18627189e-006 6.97323276e-006 7.02727084e-006 6.83610688e-006
      6.07279208e-006 6.77477829e-007 1.32212321e-007 -1.02386984e-007
      -8.86332501e-008 6.27453937e-006 8.42853478e-006 8.39548193e-006
      8.07456763e-006 8.42853478e-006 8.49527987e-006 8.42853478e-006
      8.49527987e-006 8.42853478e-006 8.56202405e-006 8.27843178e-006
      8.46222611e-006 8.42917325e-006 8.18857188e-006 8.42853478e-006
      3.39288022e-006 5.11296093e-006 2.85101123e-006 4.21154994e-007
      6.21397885e-006 8.23866321e-006 6.96378720e-006 8.42853478e-006
      8.45421982e-006 5.91650132e-006 1.24843581e-007 4.16145269e-008
      -4.01255846e-007 2.25168515e-006 1.43377235e-006 8.43169619e-006
      2.49029363e-005 3.46434899e-005 1.25935821e-005 1.10930987e-005
      6.91422974e-006 -1.80087591e-005 -2.09031100e-006 -1.15742949e-007
      0. 1.09770056e-007 0. 0. -8.06839671e-006 -1.16507790e-005
      -1.16502961e-005 -1.14263439e-005 -1.14426939e-005
      -1.15990215e-005 -1.16222727e-005 -1.16498122e-005
      -1.14268278e-005 -7.61346155e-006 -5.27247828e-008
      -4.53563977e-008 -9.07127955e-008 0. 0. -1.36069190e-007 0. 0.
      -1.36069190e-007 0. 0. 5.43837047e-008 0. 0. 5.43837047e-008 0. 0.
      0. 0. 5.43837047e-008 0. 5.43837047e-008 5.43837047e-008
      1.08767409e-007 0. 5.43837047e-008 -5.46868250e-006 0.
      2.33849937e-006 6.47166098e-006 6.41727729e-006 6.45768614e-006
      -1.36717063e-007 3.31740603e-006 6.13956354e-006 0. 0.
      -6.59736230e-008 0. -1.20357328e-007 5.43837047e-008 0. 0.
      -3.73332864e-006 -5.27094016e-006 -6.01786638e-008 0.
      -1.52546127e-005 -1.10213215e-007 -1.87733917e-007 0.
      2.68956235e-008 6.40176765e-008 4.34915259e-009 1.42105804e-007 0.
      -5.00345507e-008 1.02264277e-008 0. -2.37044215e-008 0.
      1.08767409e-007 2.68956235e-008 1.08767409e-007 0.
      -3.39308492e-008 1.08767409e-007 7.10529022e-008 5.33982939e-006
      6.58558884e-006 6.43881413e-006 6.55244958e-006 -2.52747924e-007
      8.42947429e-006 8.37509015e-006 8.16778174e-006 8.64174672e-006
      4.23617485e-006 1.02408058e-005 1.02343629e-005 9.97665211e-006
      2.33849937e-006 1.20187988e-005 1.18319431e-005 1.17468799e-005
      7.39618372e-006 1.38077066e-005 -1.10049676e-007 0.
      -1.04295331e-007 1.63151114e-007 0. 1.25436600e-007 0.
      5.43837047e-008 0. 0. 5.43837047e-008 2.50873200e-007 0.
      5.43837075e-007 2.93234393e-006 2.77356889e-006 6.85942837e-007 0.
      7.10529022e-008 -6.01380563e-008 1.63151114e-007 0.
      -1.20276113e-007 0. 1.08767409e-007 -6.01380563e-008
      5.43837047e-008 -2.70849743e-008 -1.50103659e-007 3.30530803e-008
      -4.41572787e-008 3.30530803e-008 0. 3.30530803e-008
      -1.04295331e-007 7.10529022e-008 0. 4.20366959e-008 0.
      4.91246865e-008 7.10529022e-008 1.42105804e-007 -1.32471826e-007
      1.75158874e-007 7.10529022e-008 3.30530803e-008 3.30530803e-008
      7.10529022e-008 0. 9.91592373e-008 7.10529022e-008
      -2.15721698e-007 -4.30680700e-007 -4.02600926e-006
      -3.86444844e-006 -4.11265046e-006 -1.99576490e-007 5.62029868e-007
      3.40942961e-006 3.75149511e-006 4.61416494e-006 4.64819777e-006
      5.10504560e-006 4.86664840e-006 5.09513666e-006 1.09214589e-005
      1.52071634e-005 5.38853783e-006 5.77911806e-006 5.32448803e-006
      9.96584913e-006 4.97676183e-006 2.93864787e-006 1.88353647e-006
      1.67313885e-006 -1.11410756e-007 1.50291010e-006 5.33020466e-006
      6.11481983e-006 6.11978203e-006 6.24703216e-006 6.05367586e-006
      6.18092599e-006 6.13556949e-006 6.01475040e-006 6.20167566e-006
      6.24703216e-006 5.91935941e-006 6.08553501e-006 6.18092599e-006
      5.99776922e-006 6.13556949e-006 6.14787268e-006 6.03550052e-006
      4.32995330e-006 1.58563796e-006 1.37592599e-006 9.74610884e-007
      7.29242720e-006 7.33778370e-006 6.94017945e-006 7.35385538e-006
      4.26170391e-006 3.68514770e-006 4.18430591e-006 4.19559774e-006
      3.99230885e-006 7.13391955e-006 7.28774921e-006 3.17309559e-006
      -5.00345507e-008 -8.86332501e-008 0. 2.99084877e-006
      8.27702388e-006 8.32846581e-006 8.56202405e-006 8.36242907e-006
      1.50863571e-005 1.92745429e-005 2.06942805e-005 9.54657480e-006
      8.42853478e-006 8.42853478e-006 6.82742939e-006 -2.71981366e-006
      -2.56681938e-006 7.04518834e-006 1.31445340e-005 2.07769044e-005
      1.14991167e-006 -3.85529393e-006 -3.68991346e-006 -3.85903559e-006
      -2.67602763e-006 -2.08111658e-007 0. 6.23642862e-008
      1.01918176e-005 7.35503318e-006 1.06551643e-005 -1.12535554e-005
      -6.99572456e-006 9.13019176e-006 -1.80169673e-006 -7.90475769e-006
      -6.80048606e-006 3.41926750e-007 -5.92583206e-007 0. 0. 0. 0. 0.
      0. 0. 0. 0. 0. 0. -5.83332600e-008 0. 0. 0. 0. -1.61371901e-007 0.
      -2.24515631e-007 -1.92449406e-007 0. -1.07849118e-007
      -9.90317162e-008 0. -4.47053807e-008 -1.10192538e-007
      -1.48547571e-007 -1.78821523e-007 -1.65288810e-007 0.
      -1.34116149e-007 -9.90317162e-008 -1.87212876e-007
      -2.73434125e-007 0. 0. -6.80583554e-008 -2.04775418e-007
      -1.02192338e-007 -8.13466522e-006 -1.17032832e-005
      -1.76527719e-005 -6.83585313e-008 6.58042836e-006 6.23305186e-006
      6.14862211e-006 0. 7.42261773e-006 8.37509015e-006 6.46101341e-008
      -3.79069064e-007 0. -1.63393668e-006 -8.19461729e-006
      -8.36189338e-006 -8.36574782e-006 -1.39994211e-006
      -2.81111738e-007 1.42105804e-007 -3.84327876e-007 -7.14848875e-006
      -1.62920242e-005 -4.52102455e-007 -6.47003304e-008 0.
      1.44249171e-007 1.95615740e-007 -5.96905565e-008 -1.20276113e-007
      1.35057130e-008 7.10529022e-008 0. -1.19828613e-007
      1.08767409e-007 -2.95200977e-007 -6.09403014e-006 -9.27325436e-006
      -1.09691991e-005 -1.43633017e-007 4.90768564e-008 -1.19828613e-007
      1.75562235e-007 5.59046020e-006 6.46590661e-006 6.52752851e-006
      5.69347367e-006 1.08767409e-007 8.43774797e-006 8.25481402e-006
      8.26309770e-006 6.57325018e-007 1.02851864e-005 1.00494772e-005
      1.03335524e-005 2.44588546e-006 6.08656546e-006 1.18060125e-005
      1.19496526e-005 0. 1.36856061e-005 1.16173196e-005
      -6.58730914e-006 -8.92498883e-006 -9.11192899e-008 8.48619042e-009
      -3.63290908e-008 -1.36939306e-007 1.67500275e-007 5.85207438e-008
      0. 1.31643443e-008 5.43837047e-008 6.67443629e-008
      -1.17571645e-007 2.00233103e-007 -1.43887348e-007 2.17737943e-006
      2.24684385e-007 5.22685220e-008 4.86293565e-008 6.81136925e-008
      -1.90703204e-007 6.04775323e-008 -1.11893314e-007 3.34303451e-007
      -1.63515264e-008 -8.83703990e-008 -5.21950305e-008
      -1.95417655e-007 -5.72362126e-007 -3.50139459e-007
      -1.72017820e-007 -3.39433370e-007 -4.35454666e-007
      -1.04704860e-007 -2.14560387e-007 -1.05017179e-007 6.67443629e-008
      -2.57923915e-007 7.24128739e-008 -6.01380563e-008 -2.82117952e-007
      6.40017674e-008 -5.17269463e-008 -7.28163343e-008 -2.53157452e-007
      0. 1.28003535e-007 -4.66094406e-007 7.17292039e-008
      -1.12566326e-007 0. 0. -7.37250957e-007 -4.11310702e-006
      -4.15645309e-006 -3.98472457e-006 -3.35368895e-006 7.72743469e-009
      -1.18939234e-007 -6.43671996e-008 8.63498286e-008 -2.70849743e-008
      2.98838427e-006 4.02379874e-006 4.00494309e-006 4.98716236e-006
      -4.24404277e-007 -9.95357914e-006 -1.01075675e-005
      -1.00966354e-005 5.02176499e-006 5.06125480e-006 3.49804577e-006
      2.37291852e-006 2.33781884e-006 2.18043715e-006 2.09893687e-006
      4.60861793e-006 3.52221900e-006 2.76414926e-006 6.76008085e-007
      -1.26128198e-005 6.05445575e-006 6.12506983e-006 6.53398774e-006
      6.00370231e-006 6.07066249e-006 6.35223250e-006 6.14787268e-006
      6.07066249e-006 6.18092599e-006 6.00468366e-006 6.24703216e-006
      6.23171900e-006 6.07614857e-006 6.11481983e-006 6.11456016e-006
      6.15661293e-006 6.44598799e-007 -2.90495006e-008 0.
      8.38462668e-008 4.49100980e-006 4.03846707e-006 3.96086989e-006
      4.23455367e-006 4.00541421e-006 3.86477586e-006 5.53680866e-006
      7.06032370e-006 7.30262627e-006 7.30473039e-006 1.28003535e-007
      -1.72765397e-007 3.30530803e-008 -3.39629445e-008 -8.91875516e-008
      9.37422442e-007 1.16817478e-006 -1.09410132e-006 -9.27926067e-007
      -8.48057880e-007 -9.10944607e-007 -1.13253225e-006
      -1.11108284e-006 -2.19621188e-006 3.10108408e-006 7.40841779e-006
      5.57296062e-006 -3.89061688e-006 -9.12336964e-006 -4.46143258e-006
      -2.22128324e-006 9.38305163e-007 -1.59708316e-006 -4.05567698e-006
      -1.42500585e-006 -2.13858122e-008 -1.00313962e-007 1.73988901e-005
      1.82656622e-005 -3.37372621e-005 -3.42419553e-005 1.48916815e-005
      3.60413219e-006 2.76214632e-006 5.33729008e-007 -1.61262756e-006
      -3.08432732e-007 0. 0. 0. 0. 0. 0. 0. 0. -5.83332600e-008 0.
      -1.74999784e-007 0. -1.16666520e-007 -1.16666520e-007 0. 0.
      -4.95158581e-008 -1.43737097e-007 0. -1.48547571e-007
      -1.74999784e-007 0. 0. -3.95323326e-007 0. -1.38926623e-007
      -4.47053807e-008 0. -9.42212424e-008 -2.87474194e-007
      -2.09224254e-007 -4.47053807e-008 0. 0. -2.38309056e-007
      -2.05075594e-007 -1.53288511e-007 0. -9.70827159e-007
      -2.65700078e-006 -6.23373262e-006 -3.88653007e-006
      -1.03511929e-005 5.13818759e-006 6.41727729e-006 6.58042836e-006
      -1.19454697e-007 7.60004423e-006 8.07352626e-006 8.11248992e-006
      3.36528672e-007 -4.41572787e-008 1.63151114e-007 -1.90397316e-007
      -2.29778536e-007 -1.92539716e-007 -1.32471826e-007 9.62170574e-008
      1.13312876e-006 3.09508255e-006 5.46355807e-007 1.59820715e-007
      -4.41572787e-008 0. -2.42817782e-006 -5.25276891e-006
      -4.77006279e-006 -5.29197223e-006 -4.73438377e-006
      -4.95431595e-006 -9.34305172e-006 -1.15351559e-005
      -1.52640550e-005 -1.52692792e-005 -1.52206821e-005
      -1.50513288e-005 -1.52642369e-005 -1.52692792e-005
      -1.55799844e-005 -1.53352030e-005 -1.51564063e-005
      -1.52270632e-005 -3.08516269e-006 3.77916223e-008 3.26070790e-007
      -2.24057703e-006 -8.04778665e-006 -7.18857518e-006 3.07512005e-006
      8.48638683e-006 8.59439524e-007 9.60220223e-006 1.05649679e-005
      1.00643610e-005 1.03329039e-005 1.16940473e-005 1.20364466e-005
      1.19687638e-005 -5.10742915e-008 1.36682693e-005 -2.66119059e-007
      -8.24209820e-008 -9.11192899e-008 1.67475633e-007 -3.63290908e-008
      -4.78005830e-008 2.13304460e-007 2.63286886e-008 1.75134964e-008
      0. 1.04537044e-007 -9.15829119e-008 4.88294347e-008
      -8.39066108e-011 1.07443505e-007 -1.80414162e-007 2.39892927e-007
      3.10563166e-007 -2.87643598e-008 -1.62527655e-007 -1.09186537e-007
      -3.04450111e-007 3.30866747e-008 1.32280107e-007 2.00233103e-007
      -2.33938195e-007 -4.01312832e-007 1.61021134e-007 -2.70503961e-007
      2.82488315e-007 -2.02413688e-007 -4.95131530e-007 -2.26045486e-007
      2.13879670e-008 -4.14408220e-007 -2.93299649e-007 -2.98193648e-009
      -3.68393707e-008 0. -1.42665343e-007 -2.07975432e-007
      -1.12802802e-007 2.73141609e-007 -1.29864361e-007 -2.32766581e-007
      -3.25079341e-008 -1.49329850e-007 -6.84090509e-008
      -7.48153298e-007 -4.41572787e-008 -1.04704860e-007
      -1.33237518e-005 -4.78746472e-007 -2.22986984e-007
      -2.77081153e-006 -3.86444844e-006 -4.17164301e-006
      -3.14674139e-006 -2.80620185e-007 -6.01380563e-008 3.56379708e-008
      -1.64614235e-007 2.32584966e-007 -1.76291231e-008 -6.05855490e-008
      4.34755947e-007 2.02254637e-006 -5.23040217e-006 -1.38289897e-005
      -1.51795439e-005 -1.30848121e-005 2.68993381e-006 1.19874028e-006
      1.77243692e-005 2.04001008e-005 1.10354740e-005 1.88690069e-006
      2.30917317e-006 4.93575862e-006 4.89700369e-006 5.15417605e-006
      4.72260581e-006 4.78848642e-006 3.13793817e-006 3.24217638e-007
      1.80629615e-006 4.57157512e-006 6.24492759e-006 5.82647863e-006
      6.21187473e-006 6.15871750e-006 6.11041287e-006 6.45888167e-006
      5.84477675e-006 6.08150685e-006 6.19541152e-006 6.02663249e-006
      6.11609721e-006 -5.20969843e-006 -6.23096457e-006 -6.44561806e-006
      -9.87059957e-006 -9.67706819e-006 -9.89424279e-006
      -1.20157019e-005 -6.52160725e-006 -5.40977908e-007
      -1.73697310e-006 -1.33130447e-006 -5.58923205e-007 2.56007070e-007
      -1.15399530e-007 9.97168392e-009 -6.21025791e-008 9.91592373e-008
      1.28003535e-007 -1.20276113e-007 -1.28502364e-008 -1.31731554e-007
      -6.00414614e-006 -9.45226566e-006 -6.93172387e-006
      -4.25682811e-006 -1.14751003e-006 -9.60125703e-007
      -1.00598743e-006 -1.01107014e-006 -2.33702644e-006
      -2.98759574e-006 -2.86676004e-006 -3.88453918e-006
      -1.17709633e-005 -1.52484808e-005 -4.15934119e-006
      -4.67130030e-006 -4.48711489e-006 -1.05128001e-005
      -7.50356821e-006 -1.96640099e-006 -7.84894922e-008 1.50423120e-005
      1.12199295e-005 -5.98567894e-005 -3.53026699e-005 -7.07128765e-006
      -4.64262166e-006 -1.86704729e-005 -1.92215830e-005
      -1.76386811e-006 -7.99069312e-007 0. 0. 0. 0. 0. 0. 0. 0. 0.
      -1.74999784e-007 0. 0. -5.83332600e-008 0. 0. -1.16666520e-007 0.
      -1.47744018e-007 -2.15698236e-007 -9.42212424e-008
      -2.37154779e-007 -4.95158581e-008 -3.73063216e-007 0.
      -3.13836381e-007 -8.94107615e-008 -4.35189747e-007
      -5.50962689e-008 -2.82663734e-007 0. -1.10192538e-007
      -2.33147858e-007 -2.04775418e-007 -2.72443032e-007 0. 0.
      -2.56171774e-007 -1.36416887e-007 -4.73546288e-006
      -6.18272725e-006 -6.14850251e-006 -4.00276349e-006
      -9.79619763e-009 5.51948824e-006 6.47166098e-006 6.40688995e-006
      3.59857199e-006 0. 8.15884687e-006 8.12405506e-006 4.31420040e-006
      -2.85874393e-007 -2.13727915e-007 -4.50653914e-008
      -7.35458698e-008 -1.04482623e-007 2.51641588e-008 1.01746525e-006
      3.51484027e-006 3.62369792e-006 3.70611315e-006 6.88772730e-007
      -1.10063411e-006 -1.83844736e-006 -1.45089427e-006
      -3.04824903e-006 -4.93159132e-006 -4.94654341e-006
      -4.88371052e-006 -5.12247288e-006 -5.18834395e-006
      -6.03680110e-006 -1.91553991e-005 -1.55726229e-005
      -1.30506387e-005 -8.64400954e-006 9.15043685e-008 -5.11083954e-006
      0. -3.47934861e-006 -8.65943184e-006 -1.52206821e-005
      -8.62532306e-006 -9.16199588e-006 -6.13417933e-006
      -1.73160788e-006 -9.65312483e-006 -2.25783606e-006 8.47987121e-006
      7.97848588e-006 4.90450645e-007 5.27521934e-006 1.01146734e-005
      1.04540823e-005 8.52458197e-006 1.14791937e-005 1.18556482e-005
      1.21362154e-005 -3.42691976e-007 -3.44481987e-006 -7.10549466e-006
      -2.33333040e-007 4.56854792e-007 -1.00069101e-007 7.16850863e-008
      1.08767409e-007 7.85972105e-008 7.10845200e-007 6.79490768e-007
      5.43837047e-008 4.05720272e-007 -1.81425591e-007 1.08323502e-006
      2.77465695e-008 -2.54266325e-007 6.36958418e-007 3.66600443e-006
      5.57745534e-006 8.42381633e-006 5.32210106e-006 -2.63992263e-007
      -4.78759539e-008 -3.72845847e-007 1.05990274e-007 -2.03583511e-007
      1.05438495e-007 2.27651228e-007 -2.56972328e-007 -1.75321759e-007
      -4.53563977e-008 -6.98236420e-007 -2.81883160e-007
      -2.14796174e-007 -4.26545711e-007 -5.22631865e-007 1.43919374e-008
      -1.10685690e-007 -2.99195619e-007 -2.95324281e-008
      -1.29864361e-007 -2.09178907e-007 2.36744398e-007 -1.97785866e-007
      -3.68393707e-008 -9.65097087e-008 -1.45632669e-007
      -2.25132652e-007 -1.47294691e-006 -1.45760787e-005
      -1.16052115e-005 -1.24236033e-006 -1.26600817e-005
      -2.05227153e-007 -4.95084462e-009 -2.37878467e-007
      -1.02961508e-006 -3.84729719e-006 -1.05349782e-005
      -1.02373024e-005 -1.10308802e-005 9.50219015e-009 -8.45829629e-009
      2.71815310e-007 9.95576741e-008 2.60405187e-007 2.51579422e-007
      -1.76550444e-007 1.94604951e-007 -1.53242818e-005 -1.46794991e-005
      -1.51012255e-005 -1.33184740e-005 -1.27754693e-005
      -8.92344474e-008 -1.13696679e-007 2.56042040e-006 4.36300661e-006
      4.56885846e-006 4.99101498e-006 4.98591271e-006 4.58655222e-006
      4.75938396e-006 5.08601079e-006 5.00185979e-006 4.99101498e-006
      4.98871259e-006 4.94685764e-006 3.76594676e-006 2.22808762e-006
      2.31371558e-007 2.53877397e-006 4.56132511e-006 5.21128231e-006
      6.45562750e-006 6.19541152e-006 6.16982152e-006 6.01540069e-006
      6.11481983e-006 6.13676866e-006 6.10301595e-006 1.03278865e-006
      -6.87143211e-006 -9.75513467e-006 -9.78418393e-006
      -1.05672307e-005 -1.27769608e-005 -9.02049578e-006
      -8.47901538e-006 2.15087448e-006 1.28817112e-006 0.
      1.30107935e-007 6.78001513e-008 1.47848027e-007 1.40357065e-006
      3.01194700e-006 3.21995844e-006 2.82367455e-006 3.36114522e-006
      3.20198774e-006 -8.31006946e-006 -9.40564678e-006 -9.53070139e-006
      -9.52797564e-006 -9.38079575e-006 -8.39318091e-006 4.18970285e-006
      1.52201146e-005 1.89227630e-005 1.70659350e-005 8.30636600e-006
      8.17257023e-006 1.61908233e-007 -1.06328037e-006 -7.58112662e-007
      -1.28529587e-006 -6.92015556e-006 -8.99557381e-006
      -9.73105762e-006 -2.42094779e-006 1.96765468e-005 1.14782624e-005
      5.24139869e-005 7.06488718e-005 1.52744506e-005 1.23575828e-005
      5.62111700e-006 -2.91858737e-006 -2.17200227e-006 3.37212015e-007
      0. 0. 0. 0. 0. 0. 0. 0. 0. 0. -1.16666520e-007 -5.83332600e-008 0.
      0. 0. -5.83332600e-008 -5.83332600e-008 -2.87474194e-007
      -5.83332600e-008 -5.83332600e-008 -5.04086120e-006
      -1.13104616e-005 -1.14582053e-005 -1.09081129e-005
      -2.54820679e-006 -8.94107615e-008 0. -3.32179582e-007
      -1.10192538e-007 -2.65090449e-007 -1.48547571e-007 0.
      -1.87513052e-007 0. -4.26722636e-007 -1.36116711e-007
      -6.80583554e-008 -2.72743193e-007 0. -1.02192338e-007
      5.43837047e-008 -2.04384676e-007 -2.76494756e-008 -3.81204268e-009
      6.42056466e-006 6.03507578e-006 5.65590517e-006 -1.83634597e-007
      7.95362394e-006 8.37509015e-006 7.92038099e-006 5.65261011e-008
      1.63151114e-007 -3.70334391e-007 -1.04482623e-007 -1.16899095e-007
      -1.32471826e-007 -3.14521387e-008 -1.45361582e-007
      -5.39916130e-007 2.68956235e-008 0. -2.41332543e-007
      -5.22413117e-008 -1.79071662e-007 -1.20276113e-007 0.
      -1.69499316e-007 6.22814196e-006 -5.80614642e-006 -4.99863108e-006
      -1.44671540e-005 -4.12279633e-006 -1.06137010e-008
      -9.86203190e-008 5.78611203e-009 -1.14786822e-007 -5.30685051e-009
      -1.74628042e-007 1.17521415e-006 1.12685591e-007 4.97993184e-008
      -5.96905565e-008 6.63481205e-006 6.63660921e-006 6.47166098e-006
      -1.10611982e-008 8.55033886e-006 8.32070691e-006 8.70364966e-006
      2.01219700e-006 1.02857703e-005 1.02301919e-005 7.77245987e-006
      8.33337168e-008 1.24122716e-005 1.18176604e-005 3.43962051e-006
      9.18748719e-006 -2.24189171e-006 -2.15388945e-006 5.43837047e-008
      -2.25034327e-007 1.93397838e-007 3.17841511e-007 -2.40816462e-007
      0. 0. 2.72007057e-008 -9.07127955e-008 2.19556668e-007
      2.28042865e-007 1.42221921e-007 1.06125571e-008 3.98932627e-007
      -2.77627464e-007 -1.43497346e-007 4.01590796e-007 -1.50390250e-007
      -5.23524299e-008 8.78033291e-008 -1.91616707e-007 6.86431108e-008
      -4.07960208e-008 1.42600953e-007 -3.83969308e-007 -1.19359385e-007
      8.03320503e-008 -3.23353902e-007 -2.28787684e-007 0.
      -2.31140334e-007 -8.41064818e-008 -3.17871297e-007 6.67443629e-008
      -4.01642666e-007 -3.91398025e-008 0. -2.48335681e-007
      5.05909270e-008 -5.83332600e-008 2.89671949e-008 -6.97263047e-008
      1.44825748e-007 -5.24106198e-008 -1.64842916e-007 -4.38449433e-007
      0. -2.29062607e-006 -2.77333385e-007 -3.37698992e-007
      -1.72628532e-007 -2.67144259e-007 -3.95938940e-007
      -9.05761581e-008 -2.31866892e-007 -1.43252009e-007
      -7.34252481e-008 -1.48452614e-007 -1.20276113e-007 3.53774453e-007
      -1.22179813e-007 -2.45581731e-007 -4.60862495e-008 1.98444940e-008
      -2.97352699e-007 6.65881501e-008 9.26475678e-008 -3.77832657e-006
      -1.51095182e-005 -1.55040107e-005 -8.10266192e-006
      -6.06388539e-006 -1.46179564e-005 1.85068018e-007 1.41857129e-006
      8.36884919e-006 9.31257728e-006 1.10020264e-005 1.20377763e-005
      1.42481231e-005 1.43368343e-005 8.65265247e-006 4.76377591e-006
      4.93430525e-006 5.21607353e-006 8.19320758e-006 9.83838800e-006
      1.33154535e-005 1.38872610e-005 1.44826517e-005 1.48227155e-005
      1.39260101e-005 1.20885688e-005 9.77580839e-006 1.02917566e-005
      1.08122094e-005 1.19923434e-005 9.38114226e-006 5.14935027e-006
      9.39761321e-006 1.01617879e-005 1.02063614e-005 1.03836692e-005
      3.36888047e-006 -6.37818493e-006 -5.51734820e-006 3.99824955e-007
      5.97654707e-006 8.25563075e-006 8.31766738e-006 7.79697621e-006
      7.09044070e-006 5.25200903e-006 5.50836103e-006 5.33775437e-006
      1.40803900e-006 -5.43751462e-008 1.61815956e-006 3.54017266e-006
      3.65651840e-006 6.22769039e-006 1.02361855e-005 5.73886246e-006
      3.32755599e-006 9.73033821e-007 6.61061605e-008 2.90459012e-009
      1.05016643e-005 2.24057876e-005 1.41358041e-005 8.49253684e-006
      8.25396728e-006 8.37850075e-006 8.37538300e-006 8.36032450e-006
      2.37222298e-006 -2.02617031e-007 1.50558620e-007 -2.99241947e-008
      2.32581915e-005 2.03242234e-005 -1.31375164e-005 -1.61777807e-005
      2.04827156e-005 7.16702107e-006 -3.84093983e-006 -4.17873571e-006
      -3.72547129e-006 -2.55973958e-007 0. 0. 0. 0. 0. 0. 0. 0. 0.
      -5.83332600e-008 -5.83332600e-008 -5.83332600e-008 0.
      -6.12499207e-006 -8.74998932e-006 -1.28333168e-005
      -5.17803210e-006 0. -1.93252959e-007 -8.94107615e-008
      -4.87288662e-006 -4.47152706e-006 0. -1.66182375e-007
      -4.95158581e-008 -3.58541769e-007 0. -4.84847169e-006
      -7.30625197e-006 -1.22105903e-005 -6.31528928e-006
      -1.44507027e-007 0. 0. 0. -2.38609232e-007 0. -3.58364105e-007
      -1.36717063e-007 -1.36116711e-007 -2.34430601e-007 4.07090539e-008
      -1.36717063e-007 -2.00896963e-007 3.99053624e-006 6.36618097e-006
      6.63481205e-006 -4.59746474e-007 3.64370817e-006 8.09423636e-006
      8.13722818e-006 8.48385844e-006 -1.18133379e-007 -1.73425192e-007
      1.08767409e-007 -4.41572787e-008 -3.82534893e-007 -1.19381113e-007
      -1.24390894e-007 2.68956235e-008 -2.05010082e-007 -5.96905565e-008
      -1.50371363e-007 -1.52176042e-007 1.42105804e-007 3.28950051e-007
      2.59086508e-009 2.59086508e-009 -1.08466260e-007 7.10529022e-008
      1.30582150e-008 -1.20276113e-007 -6.58924009e-008 0. 0.
      -1.18901852e-007 6.59241621e-008 7.03169150e-008 2.63136099e-006
      2.82795258e-006 2.77356889e-006 2.60304614e-006 2.82678275e-006
      3.31916453e-006 6.29668739e-006 6.07433958e-006 3.37178972e-006
      8.31419129e-006 8.31629768e-006 8.61357512e-006 3.36436119e-006
      1.04416713e-005 1.07287024e-005 1.05478048e-005 5.44847080e-006
      1.64578669e-005 1.18056132e-005 8.55065264e-006 1.33283675e-005
      -9.57199546e-008 5.04341493e-008 -1.65266201e-007 -9.11192899e-008
      2.17534819e-007 7.16850863e-008 1.72178417e-007 1.67288150e-007
      -1.78487682e-007 3.53559955e-008 1.17041488e-007 -1.95460061e-007
      -4.53563977e-008 -7.37619317e-008 -3.33247385e-008
      -2.35685533e-008 -1.48784138e-005 -1.52261900e-005
      -1.21953244e-005 7.00073670e-008 1.34118181e-007 1.56805569e-007
      -1.43680822e-007 5.19333021e-008 -4.22481321e-007 -1.92987216e-007
      2.89426438e-009 -8.36458938e-008 -2.25547979e-007 -2.57912745e-007
      -3.33101582e-007 -9.97233656e-007 -1.86466229e-006
      -3.45315897e-007 -2.73418721e-007 -1.59890387e-005
      -1.01332525e-005 -6.80549829e-006 -4.07030853e-008
      -1.32375632e-007 0. -2.23159205e-007 -2.27451119e-006
      -1.95058055e-006 -2.43337126e-006 -2.40821169e-006
      -3.09993027e-007 6.40017674e-008 -4.74289550e-007 -2.49384442e-007
      1.28003535e-007 -5.23524299e-008 -3.05509900e-007 1.78718111e-007
      -2.24571437e-007 -2.95264101e-007 0. 0. -9.93949129e-007
      -3.67183679e-006 -1.78890716e-007 -1.36818102e-007 1.56745401e-007
      2.47740928e-007 1.83561014e-007 -2.03100967e-007 -6.84090509e-008
      1.39524516e-007 6.82217518e-008 -4.13254888e-008 -4.88743626e-006
      -1.01126998e-005 3.07124265e-006 5.94240691e-006 8.93573542e-006
      9.92556215e-006 9.61274145e-006 9.73450733e-006 9.86862688e-006
      6.66798496e-006 -8.83145574e-008 2.95655764e-006 7.32852232e-006
      7.82156167e-006 9.67364758e-006 9.82866277e-006 1.18028474e-005
      9.20257935e-006 5.90392574e-006 9.70434303e-006 1.09164394e-005
      1.04642186e-005 1.03464654e-005 1.04623696e-005 1.01442092e-005
      1.07731230e-005 1.38854120e-005 1.39942204e-005 1.34630072e-005
      1.18415619e-005 1.11330892e-005 1.05134495e-005 1.25192137e-005
      9.82749771e-006 7.60754028e-006 5.36929974e-006 5.57276189e-006
      1.09748726e-005 1.34837637e-005 1.33579815e-005 9.95915980e-006
      1.03673437e-005 6.61446029e-006 6.58982481e-006 3.24817915e-006
      6.92336516e-006 8.12355756e-006 8.13470706e-006 8.17057844e-006
      8.00080034e-006 8.00341331e-006 7.87134923e-006 6.90723573e-006
      2.75140064e-006 4.31160561e-006 3.44029377e-006 3.35898426e-006
      3.11861163e-006 1.05015479e-005 1.38493742e-005 1.25469269e-005
      2.77677941e-006 -1.12383793e-006 -2.36868527e-006 1.80876191e-006
      1.08324923e-006 5.43853730e-006 1.27313990e-006 -2.17858243e-007
      7.46676108e-008 4.88901014e-006 8.74622492e-006 1.40561706e-005
      -4.48488481e-006 -3.25133078e-005 2.04359549e-005 5.38149652e-006
      -8.63864625e-006 3.36014705e-006 8.23436676e-006 3.95901225e-006
      0. 0. 0. 0. 0. 0. 0. 0. -1.16666520e-007 0. 0. 0. -5.83332600e-008
      -5.83332600e-008 0. -4.95832683e-006 -1.57364980e-007
      -4.47053807e-008 -2.24515631e-007 0. -8.94107615e-008 0.
      -1.97259880e-007 -9.42212424e-008 -1.54897918e-007 0.
      -3.82465373e-007 -4.47053807e-008 -1.04612127e-007
      -9.42212424e-008 0. -1.10192538e-007 -1.19154528e-007
      -2.04775418e-007 -5.10961691e-008 -6.83585313e-008
      -2.73434125e-007 -6.80583554e-008 -3.23539211e-007
      -5.10961691e-008 -2.00896963e-007 -2.43619400e-008
      -1.15866989e-007 5.76712402e-008 1.50876895e-006 6.30729437e-006
      6.30850991e-006 5.29862234e-007 -6.20375076e-008 8.13294355e-006
      8.09337598e-006 8.37509015e-006 4.19397247e-006 -2.20786390e-007
      -1.28837684e-007 -1.04482623e-007 -5.22413117e-008
      -5.22413117e-008 -1.68936836e-007 7.10529022e-008 0.
      -2.02612668e-007 -2.87882851e-009 -1.73557936e-007
      -2.39209726e-007 -6.01380563e-008 -2.99795261e-007 0. 0. 0.
      6.22814227e-008 -4.83282108e-008 -1.10192538e-007 2.86337301e-008
      -6.11156850e-008 1.63151114e-007 -1.10192538e-007 -4.08645320e-007
      4.86293565e-008 2.45453180e-006 3.10985752e-006 2.53979988e-006
      2.77653612e-006 2.70326473e-006 3.01350110e-006 6.63980518e-006
      6.40576854e-006 2.67190580e-006 8.65012134e-006 8.16254851e-006
      5.10604150e-006 6.09655172e-006 1.01748110e-005 1.02826571e-005
      2.98216264e-006 1.20187988e-005 1.20731829e-005 9.49285277e-006
      2.17654701e-006 5.78941672e-006 8.48619042e-009 1.62361209e-006
      1.69003192e-006 -3.90675496e-007 1.65385089e-007 0.
      -1.15288778e-007 1.38242457e-008 5.22685220e-008 1.08767409e-007
      -1.30209898e-009 6.09668263e-008 -1.46444734e-007 5.75677497e-008
      -1.91687931e-007 1.19012888e-007 4.61955585e-010 1.67701032e-007
      1.49238645e-006 3.08032713e-006 1.25936515e-006 9.85573706e-007
      -3.63404547e-006 -6.53111965e-006 -7.17751118e-006
      -1.89554737e-006 -4.52777016e-008 -4.50601533e-007
      -1.16189419e-007 -7.05389448e-006 -1.46017001e-005
      -1.68394690e-005 -1.67835115e-005 -1.72552682e-005
      -3.50129085e-006 -1.15065168e-005 -1.62449705e-005
      -2.37337099e-005 -8.83542907e-006 -9.34941181e-006
      -2.33103970e-006 -1.82122039e-006 -2.21371380e-007
      -4.41572787e-008 7.24206117e-009 -1.80414162e-007 0.
      2.11849809e-007 -2.16785807e-007 3.54339613e-006 8.08628283e-006
      5.37614869e-006 -3.74135340e-007 -1.01601749e-007 -6.01380563e-008
      -4.33162086e-007 -1.40106631e-005 -1.44331325e-005 1.11467307e-006
      -9.16900717e-006 -1.22258043e-005 -1.55114783e-008
      -3.35748425e-008 -8.72230288e-008 -8.83145574e-008 2.25040054e-007
      2.38762226e-007 9.79219658e-006 9.59049430e-006 1.03457787e-005
      5.96718837e-006 5.97434519e-006 7.41451368e-006 9.34246873e-006
      9.55406176e-006 9.99529948e-006 5.68092946e-006 4.51260621e-006
      7.40573296e-006 7.36114271e-006 7.70005681e-006 7.30857346e-006
      7.84337317e-006 4.62603430e-006 3.30530803e-008 2.64036430e-006
      5.13551777e-006 5.60331137e-006 5.14457906e-006 7.12106657e-006
      8.51599361e-006 1.05679092e-005 6.36153254e-006 4.27178202e-006
      8.27494932e-006 7.90880677e-006 8.91592208e-006 1.49464468e-005
      1.48493918e-005 1.46048114e-005 1.40498050e-005 1.32049499e-005
      1.03274833e-005 9.94812581e-006 9.41606231e-006 1.06452999e-005
      1.04608798e-005 2.59163335e-006 6.68056646e-006 1.04918290e-005
      1.01850919e-005 1.04125138e-005 1.04257224e-005 1.02977192e-005
      1.03802931e-005 2.86416866e-006 4.58122031e-006 6.91242303e-006
      5.76534057e-006 7.35959156e-006 8.08111054e-006 8.15851035e-006
      7.03342766e-006 5.50415234e-006 1.59702995e-006 -1.45838570e-007
      3.67599296e-006 3.13608666e-006 4.63957576e-006 9.98343785e-006
      1.02771201e-005 1.05225154e-005 5.21976108e-006 -1.38471421e-007
      4.56403114e-007 -2.18436753e-006 -3.06843572e-006 -2.45662045e-006
      -1.37849577e-006 3.44411160e-006 1.14497743e-005 2.23179177e-005
      1.62078311e-006 2.06966579e-005 3.19397404e-005 -1.36229880e-006
      4.68520483e-007 4.00728425e-007 -1.96253200e-006 6.42638781e-007
      0. 0. 0. 0. 0. 0. 0. 0. 0. -1.74999784e-007 -1.74999784e-007 0. 0.
      -1.16666520e-007 -5.83332600e-008 0. 0. -2.33333040e-007
      -2.47579294e-007 -8.29942201e-006 -1.11627096e-005
      -1.09925204e-005 -1.10013380e-005 -1.08439726e-005
      -1.10372257e-005 -1.10827013e-005 -3.81830159e-006 0.
      -9.98016532e-008 -1.44507027e-007 -3.32179582e-007 0.
      -1.36717063e-007 -2.55480842e-007 -1.87813228e-007
      -6.80583554e-008 0. -2.90005573e-007 -2.05075594e-007
      -1.36116711e-007 -9.54076569e-008 -6.83585313e-008
      -1.36416887e-007 -3.23629763e-007 0. 6.42056466e-006
      6.17568048e-006 6.27912141e-006 -4.41572787e-008 7.77901187e-006
      5.78803338e-006 9.34173897e-007 -1.33857138e-005 -1.35395949e-005
      -1.33215344e-005 -1.32586365e-005 -1.32981750e-005
      -1.34472257e-005 -1.33215344e-005 -1.33862350e-005
      -1.08238746e-005 -7.79910636e-007 -8.83145574e-008
      -1.04482623e-007 6.22814227e-008 -1.16790247e-007 1.42105804e-007
      2.24073545e-007 -2.17642828e-008 1.24562845e-007 -2.99795261e-007
      1.24562845e-007 1.08767409e-007 -1.08553216e-007 1.57396769e-007
      -9.77253194e-008 -1.74628042e-007 1.61725978e-007 2.58389804e-007
      -1.19828613e-007 2.07485482e-006 2.71842396e-006 2.87658213e-006
      2.59315470e-006 2.62654737e-007 3.59431760e-006 5.90480659e-006
      5.49275410e-006 2.60718321e-006 8.53824167e-006 1.63438981e-005
      1.81797950e-005 2.33522642e-005 2.52147765e-005 1.77963066e-005
      2.10566395e-005 1.74875222e-005 1.66879909e-005 1.48729669e-005
      9.09663777e-006 6.45276532e-006 6.84692668e-006 3.27899954e-007
      -1.62351924e-007 1.31643443e-008 -4.81674851e-006 -9.44493968e-006
      -8.86764428e-006 -8.93161086e-006 -8.02698833e-006
      -6.69746851e-006 -6.52683866e-006 2.76139076e-006 3.04762239e-006
      2.49496247e-006 1.93450216e-008 3.34196280e-008 -6.28253110e-006
      -4.97725568e-006 -1.08276199e-005 -1.06250573e-005
      -9.15500459e-006 -8.22705624e-006 -5.71889996e-006
      -1.58209650e-006 -5.74537626e-006 -7.56206100e-006
      -1.78896407e-005 -9.80298501e-006 -8.89218882e-006
      -8.58388285e-006 -8.87275564e-006 -9.02243846e-006
      -8.63120385e-006 -1.10362407e-005 -1.80473326e-005
      -1.55102025e-005 -1.51578688e-005 -1.51470622e-005
      -1.57657541e-005 -1.49534353e-005 -1.53352030e-005
      -1.54960271e-005 -1.53421661e-005 -2.06580462e-005
      -1.24555490e-005 -1.15778230e-005 -1.12402004e-005
      -1.11960426e-005 -1.13130018e-005 4.05695260e-007 5.27918837e-006
      1.63204513e-005 1.36743774e-005 2.16071669e-007 -7.54428447e-006
      -7.29426893e-006 -1.36831986e-005 -1.34363163e-005
      -1.99802907e-005 -1.83337379e-005 -1.15026469e-005 7.17638204e-006
      1.14986879e-005 2.21591054e-005 1.66444224e-005 1.48681866e-005
      1.05465961e-005 9.68702716e-006 9.72826911e-006 9.54433290e-006
      9.01319254e-006 1.18117696e-005 9.80474670e-006 6.69896963e-007
      8.24517201e-007 6.63338142e-006 7.58469105e-006 7.63605476e-006
      7.62467789e-006 4.63684046e-006 -5.40827159e-006 -1.42874160e-005
      -1.05297477e-005 -8.27937129e-006 7.30461736e-008 6.97112057e-007
      1.69125019e-006 3.15542451e-007 7.88063915e-007 9.98971483e-009
      -3.70238172e-006 2.14796751e-006 3.06972106e-006 5.44374416e-006
      7.43088276e-006 7.54062694e-006 4.80941435e-006 1.37679981e-005
      1.49154985e-005 1.46718730e-005 1.19848119e-005 1.04542869e-005
      7.95382130e-006 8.74882699e-006 8.20009518e-006 8.85034115e-006
      9.70099791e-006 -2.82598717e-006 -9.27828410e-008 6.69696465e-006
      7.77905461e-006 9.67620963e-006 1.04608798e-005 1.02295080e-005
      1.04587753e-005 1.40504267e-006 -8.30071258e-006 -9.46153978e-006
      1.72669183e-006 5.40840801e-006 6.68206121e-006 7.81134804e-006
      6.02358386e-006 5.56471332e-006 4.70803025e-006 -1.90781904e-007
      7.14989255e-006 1.01944443e-005 1.04834990e-005 1.05173522e-005
      1.06450698e-005 1.03026687e-005 8.16322245e-006 4.88922478e-006
      4.46178683e-006 1.41367173e-006 1.39987947e-007 1.84526596e-006
      -1.74362199e-007 5.36290963e-006 1.39835493e-005 1.06248808e-006
      7.29795784e-006 3.16620935e-005 7.04346439e-006 -2.36673017e-007
      -1.30272440e-006 4.63408725e-007 -3.61868359e-007 0. 0. 0. 0. 0.
      0. 0. 0. 0. 0. 0. -1.16666520e-007 0. 0. -5.83332600e-008 0.
      -1.07849118e-007 -2.77853246e-007 -1.07944570e-005
      -1.09430048e-005 -1.10420360e-005 -1.10907486e-005
      -1.09430048e-005 -1.10372257e-005 -1.09981011e-005
      -6.93222034e-007 -8.94107615e-008 -1.89212415e-007
      -4.95158581e-008 -4.95158581e-008 0. -4.47053807e-008
      -1.19154528e-007 0. 0. -3.41192305e-007 0. 0. -1.46335947e-006
      -3.13068426e-006 -5.32572358e-006 -1.66135021e-006
      -6.08923685e-008 -7.78545513e-008 -6.83585313e-008 5.42439557e-006
      6.26544670e-006 5.78767094e-006 -8.18397439e-006 -8.10239180e-006
      -1.24659809e-005 -2.48068372e-005 -2.45455758e-005
      -2.47230782e-005 -1.34656184e-005 -1.33665999e-005
      -1.33862350e-005 -1.33151816e-005 -1.33812246e-005
      -1.31444485e-005 -1.33215344e-005 -1.32056894e-005
      -7.84277654e-006 -4.04759521e-006 -3.52263783e-006 7.10529022e-008
      -1.20276113e-007 -5.45088241e-008 0. -1.79966662e-007
      1.33334325e-007 7.10529022e-008 -5.43519398e-008 1.03460557e-007
      9.45785928e-007 3.40497559e-006 3.37317442e-006 3.36213247e-006
      3.30703620e-006 -1.45221668e-006 -7.28755458e-006 1.53381131e-006
      2.60754859e-006 3.02790454e-006 3.14197882e-006 2.72981174e-006
      8.09885842e-006 1.96154524e-005 1.88813792e-005 2.81632001e-005
      2.80504264e-005 2.31916420e-005 8.21485992e-006 1.21521052e-005
      1.85926019e-005 1.50984561e-005 1.53634719e-005 1.51947079e-005
      1.49732232e-005 1.47476021e-005 1.44224441e-005 9.16467889e-006
      8.70690747e-006 1.14708691e-005 8.01019451e-006 1.16705432e-005
      1.34880556e-005 1.44546239e-005 6.37512630e-006 8.55065264e-006
      2.51199850e-007 -2.68538383e-006 1.63350660e-006 1.00793768e-005
      1.14360664e-005 1.06388406e-005 -8.41066867e-006 -6.68801476e-006
      -6.97733594e-006 1.06984853e-005 1.03328584e-005 1.74496581e-005
      3.87692990e-006 -3.68462270e-006 -4.67441896e-006 2.84972066e-006
      -1.35040800e-005 -1.46448983e-005 -1.87684764e-005
      -1.85435656e-005 -6.08250139e-006 -5.96340669e-006
      -5.91753133e-006 -4.74817443e-006 -7.40729183e-006
      -8.87505848e-006 -1.99063629e-006 -1.56027163e-005
      -1.54399077e-005 -4.73667313e-007 1.45537088e-005 1.62040978e-005
      1.07814913e-005 1.42123497e-007 1.40318252e-005 1.40119801e-005
      1.29476766e-005 3.77027504e-006 -1.79354302e-005 -2.24016258e-005
      -1.83530756e-005 -1.13284386e-005 -1.63039749e-005
      -1.06173457e-005 -9.71460122e-006 -2.52570590e-005
      -2.20966594e-005 -9.67150663e-006 -7.31498312e-006
      -4.00452427e-006 8.97111420e-007 1.20463494e-006 9.85247880e-007
      1.19833849e-005 3.54418116e-005 2.33355095e-005 2.29398265e-005
      2.34933286e-005 1.60691325e-005 1.05901718e-005 -1.10345877e-006
      1.62533536e-006 2.70372198e-006 1.32023097e-005 1.36523831e-005
      7.69635972e-006 7.59189788e-006 7.46653996e-006 7.45219586e-006
      7.21681772e-006 7.21476212e-008 1.88555089e-006 -1.39589929e-005
      -1.41218261e-005 -1.08785007e-005 -8.69139603e-006
      -3.50105097e-006 2.85471560e-006 -2.59765920e-006 -3.21704169e-006
      -7.45160548e-007 -3.92223399e-007 -5.97437293e-007
      -6.23339929e-007 -6.72543251e-007 -2.62315803e-006
      -3.75872719e-006 -3.72031536e-006 -3.62326068e-006 1.50908750e-006
      1.01998712e-005 1.24794051e-005 1.46296143e-005 1.46643069e-005
      1.47832861e-005 1.48073395e-005 1.40919319e-005 1.13323540e-005
      1.13935839e-005 8.92545449e-006 2.70624264e-006 8.10696656e-006
      4.99676435e-006 4.80131348e-006 4.56901444e-006 4.52012046e-006
      3.49174138e-006 -4.15864315e-006 -4.76605601e-006 4.33072699e-007
      1.98076646e-006 2.37586482e-006 5.01836530e-006 5.52484880e-006
      5.24971665e-006 5.39011580e-006 2.36329174e-006 -9.76249197e-008
      2.26799648e-006 3.16516616e-006 3.18606476e-006 3.95506095e-006
      1.05273475e-005 1.01458381e-005 1.05787485e-005 7.10012455e-006
      4.22122184e-006 2.60573484e-006 2.63303696e-006 1.15127413e-007
      2.06277014e-006 1.37681664e-005 -6.67911490e-006 -5.67835741e-006
      7.67539768e-006 1.23219061e-005 5.97763847e-006 4.23752135e-006
      7.75601802e-006 5.86579790e-006 5.08875610e-006 3.18266871e-008
      3.32414146e-007 -2.15782521e-007 -6.62331843e-008 4.68471972e-009
      1.79103068e-007 -1.15057425e-007 -3.16075233e-009 -1.73625438e-007
      -2.84117547e-008 -3.75306808e-009 5.81060799e-009 -1.90212702e-007
      -9.96203724e-008 -1.09536728e-007 -2.80215386e-006
      -2.60718866e-006 -3.03412457e-006 -1.38563955e-005
      -1.79492145e-005 -1.83401207e-005 -1.82085387e-005
      -8.23142818e-006 -8.60286127e-006 -1.36371455e-005
      -1.18884245e-005 -8.29227974e-006 -1.14153991e-007
      -1.39808535e-007 -4.93417531e-007 -2.48861693e-006
      -8.73486624e-006 -9.30427086e-006 -9.46863747e-006
      -9.30796068e-006 -9.15579858e-006 -4.33794185e-006
      -1.34732090e-006 -4.68226881e-006 -4.28592921e-006
      -6.42653367e-006 -4.48687388e-006 -9.47447063e-008
      -3.26298313e-008 -1.43349243e-005 -7.97224584e-006
      -7.58689703e-006 -1.43934903e-005 -2.49189125e-005
      -2.56114745e-005 -2.56694402e-005 -3.13793862e-005
      -2.76601531e-005 -1.35844648e-005 -1.33425910e-005
      -1.34136044e-005 -1.80710067e-005 -2.11324023e-005
      -2.01190123e-005 -2.11012957e-005 -1.34496586e-005
      -7.18862702e-006 -7.37415303e-006 -8.16369266e-006
      -1.29999671e-005 -1.10853507e-005 -5.27140901e-006
      -8.74469833e-007 -2.81664114e-007 -1.07314733e-007 1.04091328e-007
      1.59328420e-006 -3.65458095e-006 -9.48129764e-006 -9.82899564e-006
      -9.53656581e-006 -7.69666713e-006 -6.94281380e-006
      -6.89605258e-006 -6.54624864e-006 -8.23855044e-006
      -1.33479443e-005 -8.28506563e-006 5.12294400e-006 1.78968057e-005
      1.78437131e-005 1.05998706e-005 5.79891093e-006 -1.25464703e-005
